{"learner":{"attributes":{"scikit_learn":"{\"_estimator_type\": \"classifier\"}"},"feature_names":["Cote","Poids","Corde","Nb_Partants","Score_Forme","Taux_victoire_jockey","Taux_victoire_entraineur","Taux_victoire_dist"],"feature_types":["float","int","int","int","float","float","float","float"],"gradient_booster":{"model":{"cats":{"enc":[],"feature_segments":[],"sorted_idx":[]},"gbtree_model_param":{"num_parallel_tree":"1","num_trees":"100"},"iteration_indptr":[0,1,2,3,4,5,6,7,8,9,10,11,12,13,14,15,16,17,18,19,20,21,22,23,24,25,26,27,28,29,30,31,32,33,34,35,36,37,38,39,40,41,42,43,44,45,46,47,48,49,50,51,52,53,54,55,56,57,58,59,60,61,62,63,64,65,66,67,68,69,70,71,72,73,74,75,76,77,78,79,80,81,82,83,84,85,86,87,88,89,90,91,92,93,94,95,96,97,98,99,100],"tree_info":[0,0,0,0,0,0,0,0,0,0,0,0,0,0,0,0,0,0,0,0,0,0,0,0,0,0,0,0,0,0,0,0,0,0,0,0,0,0,0,0,0,0,0,0,0,0,0,0,0,0,0,0,0,0,0,0,0,0,0,0,0,0,0,0,0,0,0,0,0,0,0,0,0,0,0,0,0,0,0,0,0,0,0,0,0,0,0,0,0,0,0,0,0,0,0,0,0,0,0,0],"trees":[{"base_weights":[-8.577766E-8,-1.9862254E0,1.647804E0,-1.9937204E-1,-3.304972E-1,-1.9890292E-1,1.7854407E0,-1.8712324E-1,5.902721E-1,1.4389327E0,1.9175633E0,1.13749504E-1,-6.697495E-2,1.2613769E-1,1.7594329E-1,-1.7783748E-1,1.9217265E-1],"categories":[],"categories_nodes":[],"categories_segments":[],"categories_sizes":[],"default_left":[0,0,0,0,0,0,0,0,0,0,0,0,0,0,0,0,0],"id":0,"left_children":[1,3,5,-1,7,-1,9,-1,11,13,15,-1,-1,-1,-1,-1,-1],"loss_changes":[6.663453E4,1.1390234E2,5.5736484E3,0E0,6.1823105E1,0E0,4.881328E2,0E0,1.9757935E1,1.6644434E2,1.228125E2,0E0,0E0,0E0,0E0,0E0,0E0],"parents":[2147483647,0,0,1,1,2,2,4,4,6,6,8,8,9,9,10,10],"right_children":[2,4,6,-1,8,-1,10,-1,12,14,16,-1,-1,-1,-1,-1,-1],"split_conditions":[1.25E1,6.7E0,5.3E0,-1.9937204E-1,5.3E0,-1.9890292E-1,5E1,-1.8712324E-1,1.1E1,3.75E1,5E0,1.13749504E-1,-6.697495E-2,1.2613769E-1,1.7594329E-1,-1.7783748E-1,1.9217265E-1],"split_indices":[5,5,7,0,7,0,5,0,0,7,6,0,0,0,0,0,0],"split_type":[0,0,0,0,0,0,0,0,0,0,0,0,0,0,0,0,0],"sum_hessian":[2.0357412E4,9.230715E3,1.1126697E4,9.188915E3,4.1799892E1,4.0524625E2,1.0721451E4,1.5249859E1,2.6550035E1,2.9628638E3,7.758587E3,1.857864E1,7.971395E0,1.9097861E3,1.0530778E3,8.249924E0,7.750337E3],"tree_param":{"num_deleted":"0","num_feature":"8","num_nodes":"17","size_leaf_vector":"1"}},{"base_weights":[-1.1320417E-4,-1.8072284E0,1.494906E0,-1.8140785E-1,-3.023517E-1,-1.8101464E-1,1.6196281E0,-1.7110625E-1,5.342463E-1,1.301701E0,1.7413116E0,1.03247784E-1,-6.1098676E-2,1.0316234E-1,1.4826666E-1,-1.6324525E-1,1.7451154E-1],"categories":[],"categories_nodes":[],"categories_segments":[],"categories_sizes":[],"default_left":[0,0,0,0,0,0,0,0,0,0,0,0,0,0,0,0,0],"id":1,"left_children":[1,3,5,-1,7,-1,9,-1,11,13,15,-1,-1,-1,-1,-1,-1],"loss_changes":[5.4513438E4,9.3625E1,4.554742E3,0E0,5.111278E1,0E0,4.094082E2,0E0,1.6314053E1,1.4262451E2,1.0157422E2,0E0,0E0,0E0,0E0,0E0,0E0],"parents":[2147483647,0,0,1,1,2,2,4,4,6,6,8,8,9,9,10,10],"right_children":[2,4,6,-1,8,-1,10,-1,12,14,16,-1,-1,-1,-1,-1,-1],"split_conditions":[1.25E1,6.7E0,5.3E0,-1.8140785E-1,5.3E0,-1.8101464E-1,5E1,-1.7110625E-1,1.1E1,3.33E1,5E0,1.03247784E-1,-6.1098676E-2,1.0316234E-1,1.4826666E-1,-1.6324525E-1,1.7451154E-1],"split_indices":[5,5,7,0,7,0,5,0,0,7,6,0,0,0,0,0,0],"split_type":[0,0,0,0,0,0,0,0,0,0,0,0,0,0,0,0,0],"sum_hessian":[2.0175668E4,9.134304E3,1.1041364E4,9.092709E3,4.1594482E1,4.0102264E2,1.0640342E4,1.5108567E1,2.6485914E1,2.948466E3,7.6918755E3,1.8525072E1,7.960842E0,1.185659E3,1.7628071E3,8.180625E0,7.6836953E3],"tree_param":{"num_deleted":"0","num_feature":"8","num_nodes":"17","size_leaf_vector":"1"}},{"base_weights":[-3.185754E-4,-1.6725651E0,1.3754671E0,-1.678996E-1,-2.791111E-1,-1.675481E-1,1.4899496E0,-1.5871112E-1,4.8570287E-1,1.3026443E0,1.6839309E0,7.394426E-2,-1.4638968E-1,1.1183336E-1,1.4993635E-1,1.5616733E-1,1.6962427E-1],"categories":[],"categories_nodes":[],"categories_segments":[],"categories_sizes":[],"default_left":[0,0,0,0,0,0,0,0,0,0,0,0,0,0,0,0,0],"id":2,"left_children":[1,3,5,-1,7,-1,9,-1,11,13,15,-1,-1,-1,-1,-1,-1],"loss_changes":[4.5341676E4,7.924609E1,3.7791016E3,0E0,4.285111E1,0E0,3.764746E2,0E0,1.4592192E1,1.9072949E2,5.053711E0,0E0,0E0,0E0,0E0,0E0,0E0],"parents":[2147483647,0,0,1,1,2,2,4,4,6,6,8,8,9,9,10,10],"right_children":[2,4,6,-1,8,-1,10,-1,12,14,16,-1,-1,-1,-1,-1,-1],"split_conditions":[1.25E1,6.7E0,5.3E0,-1.678996E-1,5.3E0,-1.675481E-1,6.67E1,-1.5871112E-1,1.1666667E1,4.29E1,8E1,7.394426E-2,-1.4638968E-1,1.1183336E-1,1.4993635E-1,1.5616733E-1,1.6962427E-1],"split_indices":[5,5,7,0,7,0,5,0,4,7,5,0,0,0,0,0,0],"split_type":[0,0,0,0,0,0,0,0,0,0,0,0,0,0,0,0,0],"sum_hessian":[1.970618E4,8.894651E3,1.0811529E4,8.853587E3,4.1064404E1,3.9052203E2,1.0421007E4,1.4754982E1,2.6309422E1,5.3056587E3,5.1153486E3,2.3828829E1,2.4805932E0,2.7426724E3,2.5629863E3,4.7970248E2,4.635646E3],"tree_param":{"num_deleted":"0","num_feature":"8","num_nodes":"17","size_leaf_vector":"1"}},{"base_weights":[-5.658642E-4,-1.5678556E0,1.2787123E0,-1.574025E-1,-2.6146686E-1,-1.5707268E-1,1.384772E0,-1.2097857E0,6.7088974E-1,1.202973E0,1.5754052E0,-9.657706E-3,-1.5597449E-1,1.0063209E-1,-1.3620192E-1,-2.061663E-1,1.2141538E-1,1.4619689E-1,1.588112E-1],"categories":[],"categories_nodes":[],"categories_segments":[],"categories_sizes":[],"default_left":[0,0,0,0,0,0,0,0,0,0,0,0,0,0,0,0,0,0,0],"id":3,"left_children":[1,3,5,-1,7,-1,9,11,13,15,17,-1,-1,-1,-1,-1,-1,-1,-1],"loss_changes":[3.8181383E4,6.856055E1,3.1708281E3,0E0,3.7438103E1,0E0,3.4845898E2,7.988905E0,1.6052898E1,1.9153027E2,4.7871094E0,0E0,0E0,0E0,0E0,0E0,0E0,0E0,0E0],"parents":[2147483647,0,0,1,1,2,2,4,4,6,6,7,7,8,8,9,9,10,10],"right_children":[2,4,6,-1,8,-1,10,12,14,16,18,-1,-1,-1,-1,-1,-1,-1,-1],"split_conditions":[1.25E1,6.7E0,5.3E0,-1.574025E-1,1.82E1,-1.5707268E-1,6.67E1,9.1E0,1.1666667E1,5E0,1E2,-9.657706E-3,-1.5597449E-1,1.0063209E-1,-1.3620192E-1,-2.061663E-1,1.2141538E-1,1.4619689E-1,1.588112E-1],"split_indices":[5,5,7,0,7,0,5,5,4,6,5,0,0,0,0,0,0,0,0],"split_type":[0,0,0,0,0,0,0,0,0,0,0,0,0,0,0,0,0,0,0],"sum_hessian":[1.904109E4,8.557168E3,1.0483921E4,8.516744E3,4.0424633E1,3.7572562E2,1.0108195E4,1.9893248E1,2.0531384E1,5.1777266E3,4.9304688E3,5.0632353E0,1.4830013E1,1.805696E1,2.4744234E0,1.7046154E1,5.1606807E3,5.0835162E2,4.4221167E3],"tree_param":{"num_deleted":"0","num_feature":"8","num_nodes":"19","size_leaf_vector":"1"}},{"base_weights":[-8.791773E-4,-1.4843832E0,1.1980059E0,-1.490398E-1,-2.4580017E-1,-1.4871868E-1,1.2969388E0,-1.1293625E0,6.0941905E-1,9.9518424E-1,1.4170874E0,-1.5162483E-1,-1.4033097E-2,9.218683E-2,-1.2760773E-1,8.3709046E-2,1.2891872E-1,1.279107E-1,1.499517E-1],"categories":[],"categories_nodes":[],"categories_segments":[],"categories_sizes":[],"default_left":[0,0,0,0,0,0,0,0,0,0,0,0,0,0,0,0,0,0,0],"id":4,"left_children":[1,3,5,-1,7,-1,9,11,13,15,17,-1,-1,-1,-1,-1,-1,-1,-1],"loss_changes":[3.245687E4,6.0398438E1,2.6830928E3,0E0,3.1378843E1,0E0,3.5152148E2,7.5652504E0,1.3717743E1,1.27928955E2,7.724414E1,0E0,0E0,0E0,0E0,0E0,0E0,0E0,0E0],"parents":[2147483647,0,0,1,1,2,2,4,4,6,6,7,7,8,8,9,9,10,10],"right_children":[2,4,6,-1,8,-1,10,12,14,16,18,-1,-1,-1,-1,-1,-1,-1,-1],"split_conditions":[1.25E1,6.7E0,5.3E0,-1.490398E-1,1.82E1,-1.4871868E-1,5E1,1.1E1,1.1666667E1,3.75E1,7.5E1,-1.5162483E-1,-1.4033097E-2,9.218683E-2,-1.2760773E-1,8.3709046E-2,1.2891872E-1,1.279107E-1,1.499517E-1],"split_indices":[5,5,7,0,7,0,5,2,4,7,5,0,0,0,0,0,0,0,0],"split_type":[0,0,0,0,0,0,0,0,0,0,0,0,0,0,0,0,0,0,0],"sum_hessian":[1.8247053E4,8.1553545E3,1.0091698E4,8.115739E3,3.9615387E1,3.581061E2,9.733593E3,1.9327154E1,2.0288235E1,2.7745554E3,6.959037E3,1.3509495E1,5.817659E0,1.7842579E1,2.4456549E0,1.8068224E3,9.67733E2,2.6087354E3,4.350302E3],"tree_param":{"num_deleted":"0","num_feature":"8","num_nodes":"19","size_leaf_vector":"1"}},{"base_weights":[-1.1734716E-3,-1.416523E0,1.1294365E0,-1.422468E-1,-2.3205021E-1,-1.4192526E-1,1.2222319E0,-1.3552336E-1,3.722785E-1,9.224171E-1,1.3442887E0,8.229971E-2,-6.2959425E-2,6.681725E-2,1.0988406E-1,1.2035626E-1,1.4294152E-1],"categories":[],"categories_nodes":[],"categories_segments":[],"categories_sizes":[],"default_left":[0,0,0,0,0,0,0,0,0,0,0,0,0,0,0,0,0],"id":5,"left_children":[1,3,5,-1,7,-1,9,-1,11,13,15,-1,-1,-1,-1,-1,-1],"loss_changes":[2.7801709E4,5.399707E1,2.2860215E3,0E0,2.746924E1,0E0,3.398086E2,0E0,1.2535653E1,1.2035474E2,7.759766E1,0E0,0E0,0E0,0E0,0E0,0E0],"parents":[2147483647,0,0,1,1,2,2,4,4,6,6,8,8,9,9,10,10],"right_children":[2,4,6,-1,8,-1,10,-1,12,14,16,-1,-1,-1,-1,-1,-1],"split_conditions":[1.25E1,6.7E0,5.3E0,-1.422468E-1,5.3E0,-1.4192526E-1,5E1,-1.3552336E-1,1.1E1,3.33E1,7.5E1,8.229971E-2,-6.2959425E-2,6.681725E-2,1.0988406E-1,1.2035626E-1,1.4294152E-1],"split_indices":[5,5,7,0,7,0,5,0,0,7,5,0,0,0,0,0,0],"split_type":[0,0,0,0,0,0,0,0,0,0,0,0,0,0,0,0,0],"sum_hessian":[1.7371807E4,7.714362E3,9.657445E3,7.675636E3,3.872574E1,3.387642E2,9.318682E3,1.3112598E1,2.561314E1,2.6985762E3,6.620105E3,1.7788887E1,7.8242526E0,1.1074347E3,1.5911415E3,2.5008997E3,4.119205E3],"tree_param":{"num_deleted":"0","num_feature":"8","num_nodes":"17","size_leaf_vector":"1"}},{"base_weights":[-1.4842419E-3,-1.3604815E0,1.069705E0,-1.3664232E-1,-2.1815851E-1,-1.3631354E-1,1.1570809E0,-1.2962388E-1,3.401223E-1,8.56798E-1,1.2824934E0,7.572424E-2,-5.7522852E-2,7.15447E-2,1.17468335E-1,1.1372768E-1,1.3716431E-1],"categories":[],"categories_nodes":[],"categories_segments":[],"categories_sizes":[],"default_left":[0,0,0,0,0,0,0,0,0,0,0,0,0,0,0,0,0],"id":6,"left_children":[1,3,5,-1,7,-1,9,-1,11,13,15,-1,-1,-1,-1,-1,-1],"loss_changes":[2.3956736E4,4.8936523E1,1.9578408E3,0E0,2.3748194E1,0E0,3.3347754E2,0E0,1.047916E1,1.1690234E2,7.9546875E1,0E0,0E0,0E0,0E0,0E0,0E0],"parents":[2147483647,0,0,1,1,2,2,4,4,6,6,8,8,9,9,10,10],"right_children":[2,4,6,-1,8,-1,10,-1,12,14,16,-1,-1,-1,-1,-1,-1],"split_conditions":[1.25E1,6.7E0,5.3E0,-1.3664232E-1,5.3E0,-1.3631354E-1,5E1,-1.2962388E-1,1.1E1,4.44E1,7.5E1,7.572424E-2,-5.7522852E-2,7.15447E-2,1.17468335E-1,1.1372768E-1,1.3716431E-1],"split_indices":[5,5,7,0,7,0,5,0,0,7,5,0,0,0,0,0,0],"split_type":[0,0,0,0,0,0,0,0,0,0,0,0,0,0,0,0,0],"sum_hessian":[1.6454705E4,7.2528647E3,9.201841E3,7.2151396E3,3.772473E1,3.1852182E2,8.883319E3,1.2419653E1,2.5305079E1,2.619388E3,6.263931E3,1.750217E1,7.8029075E0,1.8154015E3,8.039865E2,2.387946E3,3.875985E3],"tree_param":{"num_deleted":"0","num_feature":"8","num_nodes":"17","size_leaf_vector":"1"}},{"base_weights":[-1.8048842E-3,-1.3136042E0,1.0167342E0,-1.3195942E-1,-2.0570518E-1,-1.3161781E-1,1.0992421E0,-9.86041E-1,5.0079197E-1,9.129696E-1,1.3120209E0,-1.37118E-1,-6.7293965E-3,7.960597E-2,-1.2301421E-1,8.224443E-2,1.368431E-1,1.1899288E-1,1.326198E-1],"categories":[],"categories_nodes":[],"categories_segments":[],"categories_sizes":[],"default_left":[0,0,0,0,0,0,0,0,0,0,0,0,0,0,0,0,0,0,0],"id":7,"left_children":[1,3,5,-1,7,-1,9,11,13,15,17,-1,-1,-1,-1,-1,-1,-1,-1],"loss_changes":[2.0743762E4,4.4759766E1,1.6836748E3,0E0,2.1264029E1,0E0,3.333838E2,6.361389E0,1.1423882E1,1.8459644E2,5.2382812E0,0E0,0E0,0E0,0E0,0E0,0E0,0E0,0E0],"parents":[2147483647,0,0,1,1,2,2,4,4,6,6,7,7,8,8,9,9,10,10],"right_children":[2,4,6,-1,8,-1,10,12,14,16,18,-1,-1,-1,-1,-1,-1,-1,-1],"split_conditions":[1.25E1,6.7E0,5.3E0,-1.3195942E-1,1.82E1,-1.3161781E-1,6.67E1,1.1E1,1.1666667E1,7.5E1,1E2,-1.37118E-1,-6.7293965E-3,7.960597E-2,-1.2301421E-1,8.224443E-2,1.368431E-1,1.1899288E-1,1.326198E-1],"split_indices":[5,5,7,0,7,0,5,2,4,7,5,0,0,0,0,0,0,0,0],"split_type":[0,0,0,0,0,0,0,0,0,0,0,0,0,0,0,0,0,0,0],"sum_hessian":[1.5523386E4,6.7848E3,8.738586E3,6.7481255E3,3.6674656E1,2.979891E2,8.440597E3,1.7238651E1,1.9436005E1,4.503445E3,3.937152E3,1.1799749E1,5.438903E0,1.706509E1,2.370914E0,3.7591086E3,7.443363E2,4.1844653E2,3.5187056E3],"tree_param":{"num_deleted":"0","num_feature":"8","num_nodes":"19","size_leaf_vector":"1"}},{"base_weights":[-2.1518122E-3,-1.2618794E0,9.7814316E-1,-1.2800525E-1,-1.720446E-1,-1.2762868E-1,1.0542116E0,-1.2426316E-1,1.1026714E-1,8.680351E-1,1.2703605E0,2.9118765E-2,-9.9684075E-2,-2.2647975E-1,8.807599E-2,1.14048995E-1,1.2856214E-1],"categories":[],"categories_nodes":[],"categories_segments":[],"categories_sizes":[],"default_left":[0,0,0,0,0,0,0,0,0,0,0,0,0,0,0,0,0],"id":8,"left_children":[1,3,5,-1,7,-1,9,-1,11,13,15,-1,-1,-1,-1,-1,-1],"loss_changes":[1.8033525E4,1.2635254E2,1.4097036E3,0E0,3.2166286E1,0E0,3.1861523E2,0E0,1.7271194E1,1.7227856E2,5.8164062E0,0E0,0E0,0E0,0E0,0E0,0E0],"parents":[2147483647,0,0,1,1,2,2,4,4,6,6,8,8,9,9,10,10],"right_children":[2,4,6,-1,8,-1,10,-1,12,14,16,-1,-1,-1,-1,-1,-1],"split_conditions":[1.43E1,6.7E0,5.3E0,-1.2800525E-1,5.3E0,-1.2762868E-1,6.67E1,-1.2426316E-1,1.22E1,5E0,1E2,2.9118765E-2,-9.9684075E-2,-2.2647975E-1,8.807599E-2,1.14048995E-1,1.2856214E-1],"split_indices":[5,5,7,0,7,0,5,0,4,6,5,0,0,0,0,0,0],"split_type":[0,0,0,0,0,0,0,0,0,0,0,0,0,0,0,0,0],"sum_hessian":[1.4601174E4,6.389746E3,8.211428E3,6.284773E3,1.0497321E2,2.6750955E2,7.943918E3,2.1195122E1,8.377809E1,4.2705557E3,3.6733623E3,7.264382E1,1.113427E1,1.6559797E1,4.253996E3,3.942277E2,3.2791345E3],"tree_param":{"num_deleted":"0","num_feature":"8","num_nodes":"17","size_leaf_vector":"1"}},{"base_weights":[-2.5514895E-3,-1.2400644E0,9.2446303E-1,-1.24636926E-1,-1.7657521E-1,-1.2425909E-1,9.9835235E-1,-9.0117097E-1,4.4697088E-1,6.773941E-1,1.1438856E0,4.3464988E-3,-1.2854214E-1,6.947966E-2,-1.2412222E-1,8.113439E-2,3.0199466E-2,9.852453E-2,1.2480052E-1],"categories":[],"categories_nodes":[],"categories_segments":[],"categories_sizes":[],"default_left":[0,0,0,0,0,0,0,0,0,0,0,0,0,0,0,0,0,0,0],"id":9,"left_children":[1,3,5,-1,7,-1,9,11,13,15,17,-1,-1,-1,-1,-1,-1,-1,-1],"loss_changes":[1.5718664E4,3.9126953E1,1.2555879E3,0E0,1.6555157E1,0E0,3.5309766E2,6.1780396E0,9.181029E0,1.1872583E2,8.484375E1,0E0,0E0,0E0,0E0,0E0,0E0,0E0,0E0],"parents":[2147483647,0,0,1,1,2,2,4,4,6,6,7,7,8,8,9,9,10,10],"right_children":[2,4,6,-1,8,-1,10,12,14,16,18,-1,-1,-1,-1,-1,-1,-1,-1],"split_conditions":[1.25E1,6.7E0,5.3E0,-1.24636926E-1,1.82E1,-1.2425909E-1,5E1,1.2E1,1.1E1,1.15E1,7.5E1,4.3464988E-3,-1.2854214E-1,6.947966E-2,-1.2412222E-1,8.113439E-2,3.0199466E-2,9.852453E-2,1.2480052E-1],"split_indices":[5,5,7,0,7,0,5,3,2,4,5,0,0,0,0,0,0,0,0],"split_type":[0,0,0,0,0,0,0,0,0,0,0,0,0,0,0,0,0,0,0],"sum_hessian":[1.3699856E4,5.8671714E3,7.832685E3,5.8324214E3,3.4749638E1,2.5774115E2,7.574944E3,1.5866561E1,1.8883076E1,2.3649492E3,5.2099946E3,4.8442945E0,1.1022266E1,1.6979006E1,1.9040694E0,1.7421539E3,6.227953E2,2.0686267E3,3.141368E3],"tree_param":{"num_deleted":"0","num_feature":"8","num_nodes":"19","size_leaf_vector":"1"}},{"base_weights":[-2.9205414E-3,-1.1987923E0,8.9325887E-1,-1.21746205E-1,-1.8873082E-1,-1.2131971E-1,9.615691E-1,-1.17473066E-1,4.6424877E-2,7.664888E-1,1.2037501E0,2.1214219E-2,-9.161854E-2,6.703081E-2,1.2663078E-1,1.0565598E-1,1.2215666E-1],"categories":[],"categories_nodes":[],"categories_segments":[],"categories_sizes":[],"default_left":[0,0,0,0,0,0,0,0,0,0,0,0,0,0,0,0,0],"id":10,"left_children":[1,3,5,-1,7,-1,9,-1,11,13,15,-1,-1,-1,-1,-1,-1],"loss_changes":[1.3752976E4,1.0343408E2,1.05669E3,0E0,2.3460762E1,0E0,3.3478125E2,0E0,1.3350209E1,1.8847583E2,7.0180664E0,0E0,0E0,0E0,0E0,0E0,0E0],"parents":[2147483647,0,0,1,1,2,2,4,4,6,6,8,8,9,9,10,10],"right_children":[2,4,6,-1,8,-1,10,-1,12,14,16,-1,-1,-1,-1,-1,-1],"split_conditions":[1.43E1,6.7E0,5.3E0,-1.21746205E-1,5.3E0,-1.2131971E-1,6.67E1,-1.17473066E-1,1.22E1,7.5E1,1E2,2.1214219E-2,-9.161854E-2,6.703081E-2,1.2663078E-1,1.0565598E-1,1.2215666E-1],"split_indices":[5,5,7,0,7,0,5,0,4,7,5,0,0,0,0,0,0],"split_type":[0,0,0,0,0,0,0,0,0,0,0,0,0,0,0,0,0],"sum_hessian":[1.2830673E4,5.4961763E3,7.3344966E3,5.396228E3,9.99483E1,2.2985283E2,7.1046436E3,1.847745E1,8.1470856E1,3.9372764E3,3.1673672E3,7.017036E1,1.1300497E1,3.3038538E3,6.334227E2,3.485035E2,2.8188638E3],"tree_param":{"num_deleted":"0","num_feature":"8","num_nodes":"17","size_leaf_vector":"1"}},{"base_weights":[-3.2756855E-3,-1.1728367E0,8.547681E-1,-1.1924954E-1,-1.7516726E-1,-1.18791655E-1,9.1953576E-1,-1.1452458E-1,4.1271355E-2,7.201707E-1,1.1765565E0,1.1943772E-2,-1.6668135E-1,6.1900623E-2,1.20111935E-1,1.0183542E-1,1.1960125E-1],"categories":[],"categories_nodes":[],"categories_segments":[],"categories_sizes":[],"default_left":[0,0,0,0,0,0,0,0,0,0,0,0,0,0,0,0,0],"id":11,"left_children":[1,3,5,-1,7,-1,9,-1,11,13,15,-1,-1,-1,-1,-1,-1],"loss_changes":[1.20443545E4,9.940381E1,9.1699756E2,0E0,2.0900217E1,0E0,3.4301758E2,0E0,1.116942E1,1.8326135E2,7.7998047E0,0E0,0E0,0E0,0E0,0E0,0E0],"parents":[2147483647,0,0,1,1,2,2,4,4,6,6,8,8,9,9,10,10],"right_children":[2,4,6,-1,8,-1,10,-1,12,14,16,-1,-1,-1,-1,-1,-1],"split_conditions":[1.43E1,6.7E0,5.3E0,-1.1924954E-1,5.3E0,-1.18791655E-1,6.67E1,-1.1452458E-1,2.3E1,6.67E1,1E2,1.1943772E-2,-1.6668135E-1,6.1900623E-2,1.20111935E-1,1.0183542E-1,1.1960125E-1],"split_indices":[5,5,7,0,7,0,5,0,0,7,5,0,0,0,0,0,0],"split_type":[0,0,0,0,0,0,0,0,0,0,0,0,0,0,0,0,0],"sum_hessian":[1.1999935E4,5.077989E3,6.9219453E3,4.9796714E3,9.831752E1,2.1219704E2,6.7097485E3,1.7151798E1,8.1165726E1,3.7808396E3,2.9289087E3,7.850329E1,2.6624377E0,3.1256636E3,6.5517615E2,3.2659662E2,2.6023123E3],"tree_param":{"num_deleted":"0","num_feature":"8","num_nodes":"17","size_leaf_vector":"1"}},{"base_weights":[-3.642301E-3,-1.17081344E-1,8.0389714E-1,-1.16761856E-1,8.690152E-1,6.623917E-1,1.152545E0,4.5482997E-2,9.201552E-2,9.823987E-2,1.1738348E-1],"categories":[],"categories_nodes":[],"categories_segments":[],"categories_sizes":[],"default_left":[0,0,0,0,0,0,0,0,0,0,0],"id":12,"left_children":[1,-1,3,-1,5,7,9,-1,-1,-1,-1],"loss_changes":[1.0569807E4,0E0,8.5196094E2,0E0,3.7516406E2,1.982992E2,8.640869E0,0E0,0E0,0E0,0E0],"parents":[2147483647,0,0,2,2,4,4,5,5,6,6],"right_children":[2,-1,4,-1,6,8,10,-1,-1,-1,-1],"split_conditions":[6.7E0,-1.17081344E-1,5.3E0,-1.16761856E-1,6.67E1,4.29E1,1E2,4.5482997E-2,9.201552E-2,9.823987E-2,1.1738348E-1],"split_indices":[5,0,7,0,5,7,5,0,0,0,0],"split_type":[0,0,0,0,0,0,0,0,0,0,0],"sum_hessian":[1.1212213E4,4.584946E3,6.6272676E3,2.1135498E2,6.4159126E3,3.7132224E3,2.7026902E3,2.058443E3,1.6547793E3,3.0581244E2,2.3968777E3],"tree_param":{"num_deleted":"0","num_feature":"8","num_nodes":"11","size_leaf_vector":"1"}},{"base_weights":[-3.993345E-3,-1.1308802E0,7.836947E-1,-1.1518945E-1,-1.8864863E-1,-1.1465216E-1,8.418446E-1,-1.0937405E-1,-1.0469065E-2,6.354189E-1,1.1311618E0,1.4409035E-2,-8.753542E-2,5.4036636E-2,1.18563235E-1,9.48169E-2,1.1544931E-1],"categories":[],"categories_nodes":[],"categories_segments":[],"categories_sizes":[],"default_left":[0,0,0,0,0,0,0,0,0,0,0,0,0,0,0,0,0],"id":13,"left_children":[1,3,5,-1,7,-1,9,-1,11,13,15,-1,-1,-1,-1,-1,-1],"loss_changes":[9.295555E3,8.50918E1,6.928025E2,0E0,1.5339666E1,0E0,3.5666846E2,0E0,1.08927E1,1.8212598E2,9.538086E0,0E0,0E0,0E0,0E0,0E0,0E0],"parents":[2147483647,0,0,1,1,2,2,4,4,6,6,8,8,9,9,10,10],"right_children":[2,4,6,-1,8,-1,10,-1,12,14,16,-1,-1,-1,-1,-1,-1],"split_conditions":[1.43E1,6.7E0,5.3E0,-1.1518945E-1,5.3E0,-1.1465216E-1,6.67E1,-1.0937405E-1,1.22E1,7.5E1,1E2,1.4409035E-2,-8.753542E-2,5.4036636E-2,1.18563235E-1,9.48169E-2,1.1544931E-1],"split_indices":[5,5,7,0,7,0,5,0,4,7,5,0,0,0,0,0,0],"split_type":[0,0,0,0,0,0,0,0,0,0,0,0,0,0,0,0,0],"sum_hessian":[1.047027E4,4.307464E3,6.1628057E3,4.2132744E3,9.418959E1,1.7968433E2,5.983121E3,1.4647389E1,7.95422E1,3.4936348E3,2.4894863E3,6.818974E1,1.1352459E1,2.9806863E3,5.129486E2,2.8622266E2,2.2032637E3],"tree_param":{"num_deleted":"0","num_feature":"8","num_nodes":"17","size_leaf_vector":"1"}},{"base_weights":[-4.3473416E-3,-1.1353178E-1,7.35367E-1,-1.1311149E-1,7.936676E-1,5.8167815E-1,1.111956E0,4.8817288E-2,1.1638724E-1,9.1524616E-2,1.13755226E-1],"categories":[],"categories_nodes":[],"categories_segments":[],"categories_sizes":[],"default_left":[0,0,0,0,0,0,0,0,0,0,0],"id":14,"left_children":[1,-1,3,-1,5,7,9,-1,-1,-1,-1],"loss_changes":[8.179561E3,0E0,6.441218E2,0E0,3.8615405E2,1.8686145E2,1.0492432E1,0E0,0E0,0E0,0E0],"parents":[2147483647,0,0,2,2,4,4,5,5,6,6],"right_children":[2,-1,4,-1,6,8,10,-1,-1,-1,-1],"split_conditions":[6.7E0,-1.1353178E-1,5.3E0,-1.1311149E-1,6.67E1,7.5E1,1E2,4.8817288E-2,1.1638724E-1,9.1524616E-2,1.13755226E-1],"split_indices":[5,0,7,0,5,7,5,0,0,0,0],"split_type":[0,0,0,0,0,0,0,0,0,0,0],"sum_hessian":[9.775206E3,3.8651428E3,5.9100625E3,1.7845514E2,5.7316074E3,3.4419773E3,2.2896304E3,2.9672505E3,4.7472678E2,2.678589E2,2.0217714E3],"tree_param":{"num_deleted":"0","num_feature":"8","num_nodes":"11","size_leaf_vector":"1"}},{"base_weights":[-4.687082E-3,-1.0980653E0,7.1756727E-1,-1.1207407E-1,-2.0687588E-1,-1.1143849E-1,7.695595E-1,1.1579322E-2,-7.951499E-1,5.5850565E-1,1.0945562E0,-2.5896458E-2,6.255456E-2,-8.278219E-3,-1.9407223E-1,4.6880793E-2,1.15209155E-1,8.8329464E-2,1.12265825E-1],"categories":[],"categories_nodes":[],"categories_segments":[],"categories_sizes":[],"default_left":[0,0,0,0,0,0,0,0,0,0,0,0,0,0,0,0,0,0,0],"id":15,"left_children":[1,3,5,-1,7,-1,9,11,13,15,17,-1,-1,-1,-1,-1,-1,-1,-1],"loss_changes":[7.2098174E3,7.3160645E1,5.2452905E2,0E0,1.1747681E1,0E0,3.661411E2,1.1389499E1,2.0036156E1,1.7216779E2,1.1500244E1,0E0,0E0,0E0,0E0,0E0,0E0,0E0,0E0],"parents":[2147483647,0,0,1,1,2,2,4,4,6,6,7,7,8,8,9,9,10,10],"right_children":[2,4,6,-1,8,-1,10,12,14,16,18,-1,-1,-1,-1,-1,-1,-1,-1],"split_conditions":[1.43E1,6.7E0,5.3E0,-1.1207407E-1,1.2E1,-1.1143849E-1,6.67E1,1E1,9E0,1E2,1E2,-2.5896458E-2,6.255456E-2,-8.278219E-3,-1.9407223E-1,4.6880793E-2,1.15209155E-1,8.8329464E-2,1.12265825E-1],"split_indices":[5,5,7,0,0,0,5,2,2,7,5,0,0,0,0,0,0,0,0],"split_type":[0,0,0,0,0,0,0,0,0,0,0,0,0,0,0,0,0,0,0],"sum_hessian":[9.127854E3,3.6308318E3,5.497022E3,3.54049E3,9.034179E1,1.5114032E2,5.345882E3,6.659288E1,2.3748907E1,3.242749E3,2.1031326E3,4.662556E1,1.9967318E1,1.5304285E1,8.444622E0,2.8186135E3,4.2413553E2,2.5072261E2,1.85241E3],"tree_param":{"num_deleted":"0","num_feature":"8","num_nodes":"19","size_leaf_vector":"1"}},{"base_weights":[-5.0234394E-3,-1.1078804E-1,6.706572E-1,1.1974116E-1,8.609927E-1,-1.1031288E-1,2.7268997E-1,6.9436157E-1,1.1153306E-1,5.9362616E-2,-6.0738493E-3,-2.5503576E-1,7.0977464E-2],"categories":[],"categories_nodes":[],"categories_segments":[],"categories_sizes":[],"default_left":[0,0,0,0,0,0,0,0,0,0,0,0,0],"id":16,"left_children":[1,-1,3,5,7,-1,9,11,-1,-1,-1,-1,-1],"loss_changes":[6.3548955E3,0E0,5.544072E2,2.5448949E2,1.6578662E2,0E0,1.2938367E2,1.2069226E2,0E0,0E0,0E0,0E0,0E0],"parents":[2147483647,0,0,2,2,3,3,4,4,6,6,7,7],"right_children":[2,-1,4,6,8,-1,10,12,-1,-1,-1,-1,-1],"split_conditions":[6.7E0,-1.1078804E-1,3.33E1,5.3E0,7.5E1,-1.1031288E-1,9.5E0,5E0,1.1153306E-1,5.9362616E-2,-6.0738493E-3,-2.5503576E-1,7.0977464E-2],"split_indices":[5,0,7,7,7,0,4,6,0,0,0,0,0],"split_type":[0,0,0,0,0,0,0,0,0,0,0,0,0],"sum_hessian":[8.526014E3,3.238858E3,5.2871562E3,1.3580325E3,3.9291238E3,1.502809E2,1.2077516E3,2.3761213E3,1.5530023E3,6.150066E2,5.92745E2,1.0456091E1,2.3656653E3],"tree_param":{"num_deleted":"0","num_feature":"8","num_nodes":"13","size_leaf_vector":"1"}},{"base_weights":[-5.3904476E-3,-1.09650254E-1,6.3918704E-1,2.6762757E-1,9.121945E-1,-1.09100066E-1,3.621617E-1,7.3008186E-1,1.10573284E-1,2.6134226E-2,1.10016875E-1,6.070521E-2,1.09956674E-1],"categories":[],"categories_nodes":[],"categories_segments":[],"categories_sizes":[],"default_left":[0,0,0,0,0,0,0,0,0,0,0,0,0],"id":17,"left_children":[1,-1,3,5,7,-1,9,11,-1,-1,-1,-1,-1],"loss_changes":[5.6066934E3,0E0,5.081062E2,2.7319574E2,1.0099658E2,0E0,1.4752512E2,6.71131E1,0E0,0E0,0E0,0E0,0E0],"parents":[2147483647,0,0,2,2,3,3,4,4,6,6,7,7],"right_children":[2,-1,4,6,8,-1,10,12,-1,-1,-1,-1,-1],"split_conditions":[6.7E0,-1.09650254E-1,4E1,5.3E0,1E2,-1.09100066E-1,7.5E1,1E2,1.10573284E-1,2.6134226E-2,1.10016875E-1,6.070521E-2,1.09956674E-1],"split_indices":[5,0,7,7,7,0,5,5,0,0,0,0,0],"split_type":[0,0,0,0,0,0,0,0,0,0,0,0,0],"sum_hessian":[7.9699116E3,2.9595002E3,5.0104116E3,2.1230076E3,2.887404E3,1.3742459E2,1.985583E3,1.4900719E3,1.3973322E3,1.7481251E3,2.3745793E2,1.1198359E3,3.7023602E2],"tree_param":{"num_deleted":"0","num_feature":"8","num_nodes":"13","size_leaf_vector":"1"}},{"base_weights":[-5.635439E-3,-1.0864103E-1,6.0885483E-1,3.7520626E-1,1.0497953E0,-2.0235081E-1,5.3014666E-1,7.775873E-1,1.0891569E-1,-1.07999444E-1,2.3160303E-4,6.959955E-2,1.9975305E-2,6.109062E-2,1.08297765E-1],"categories":[],"categories_nodes":[],"categories_segments":[],"categories_sizes":[],"default_left":[0,0,0,0,0,0,0,0,0,0,0,0,0,0,0],"id":18,"left_children":[1,-1,3,5,7,9,11,13,-1,-1,-1,-1,-1,-1,-1],"loss_changes":[4.951482E3,0E0,4.8930164E2,2.7827127E2,1.6786377E1,1.1823675E2,1.3417542E2,1.00995865E1,0E0,0E0,0E0,0E0,0E0,0E0,0E0],"parents":[2147483647,0,0,2,2,3,3,4,4,5,5,6,6,7,7],"right_children":[2,-1,4,6,8,10,12,14,-1,-1,-1,-1,-1,-1,-1],"split_conditions":[6.7E0,-1.0864103E-1,6.67E1,2.22E1,1E2,5.3E0,1.15E1,7.5E1,1.0891569E-1,-1.07999444E-1,2.3160303E-4,6.959955E-2,1.9975305E-2,6.109062E-2,1.08297765E-1],"split_indices":[5,0,5,7,5,7,4,7,0,0,0,0,0,0,0],"split_type":[0,0,0,0,0,0,0,0,0,0,0,0,0,0,0],"sum_hessian":[7.453645E3,2.7014773E3,4.7521675E3,3.1074314E3,1.6447362E3,6.5723E2,2.4502014E3,2.1040662E2,1.4343296E3,1.2347461E2,5.337554E2,1.630585E3,8.1961646E2,1.380563E2,7.235031E1],"tree_param":{"num_deleted":"0","num_feature":"8","num_nodes":"15","size_leaf_vector":"1"}},{"base_weights":[-5.8914344E-3,-1.077438E-1,5.7863486E-1,3.4923634E-1,1.0365124E0,-1.3975607E-2,5.703595E-1,7.4652827E-1,1.0798132E-1,4.8730806E-2,-2.6586995E-2,4.6166304E-2,1.1024147E-1,9.606275E-2,4.8750266E-2],"categories":[],"categories_nodes":[],"categories_segments":[],"categories_sizes":[],"default_left":[0,0,0,0,0,0,0,0,0,0,0,0,0,0,0],"id":19,"left_children":[1,-1,3,5,7,9,11,13,-1,-1,-1,-1,-1,-1,-1],"loss_changes":[4.373794E3,0E0,4.742245E2,2.4189102E2,1.8124146E1,1.4416095E2,1.077558E2,1.0573761E1,0E0,0E0,0E0,0E0,0E0,0E0,0E0],"parents":[2147483647,0,0,2,2,3,3,4,4,5,5,6,6,7,7],"right_children":[2,-1,4,6,8,10,12,14,-1,-1,-1,-1,-1,-1,-1],"split_conditions":[6.7E0,-1.077438E-1,6.67E1,3.33E1,1E2,8.8E0,1E2,1.12E1,1.0798132E-1,4.8730806E-2,-2.6586995E-2,4.6166304E-2,1.1024147E-1,9.606275E-2,4.8750266E-2],"split_indices":[5,0,5,7,5,4,7,4,0,0,0,0,0,0,0],"split_type":[0,0,0,0,0,0,0,0,0,0,0,0,0,0,0],"sum_hessian":[6.9810234E3,2.4637195E3,4.517304E3,3.0106958E3,1.5066083E3,1.1396572E3,1.8710386E3,1.9810991E2,1.3084984E3,3.8083667E2,7.588206E2,1.5551882E3,3.1585034E2,1.0697798E2,9.113193E1],"tree_param":{"num_deleted":"0","num_feature":"8","num_nodes":"15","size_leaf_vector":"1"}},{"base_weights":[-5.9227827E-3,-1.06944464E-1,5.478073E-1,3.4006202E-1,1.0627022E0,-1.0696552E-1,3.9439803E-1,8.169343E-1,1.071487E-1,3.0612161E-2,1.0805251E-1,5.7950217E-2,1.0402457E-1],"categories":[],"categories_nodes":[],"categories_segments":[],"categories_sizes":[],"default_left":[0,0,0,0,0,0,0,0,0,0,0,0,0],"id":20,"left_children":[1,-1,3,5,7,-1,9,11,-1,-1,-1,-1,-1],"loss_changes":[3.8632266E3,0E0,4.61089E2,2.3598047E2,1.8011475E0,0E0,1.7906439E2,1.8887634E0,0E0,0E0,0E0,0E0,0E0],"parents":[2147483647,0,0,2,2,3,3,4,4,6,6,7,7],"right_children":[2,-1,4,6,8,-1,10,12,-1,-1,-1,-1,-1],"split_conditions":[6.7E0,-1.06944464E-1,7.5E1,5.3E0,1E2,-1.0696552E-1,7.5E1,1E2,1.071487E-1,3.0612161E-2,1.0805251E-1,5.7950217E-2,1.0402457E-1],"split_indices":[5,0,5,7,5,0,7,7,0,0,0,0,0],"split_type":[0,0,0,0,0,0,0,0,0,0,0,0,0],"sum_hessian":[6.558033E3,2.2450828E3,4.3129507E3,3.074243E3,1.2387076E3,1.1340211E2,2.9608408E3,4.5992218E1,1.1927155E3,2.6246077E3,3.3623315E2,2.4033762E1,2.1958454E1],"tree_param":{"num_deleted":"0","num_feature":"8","num_nodes":"13","size_leaf_vector":"1"}},{"base_weights":[-6.1543034E-3,-1.0623097E-1,5.1901186E-1,3.1603974E-1,1.0543414E0,8.92281E-2,6.287469E-1,7.9077166E-1,1.06405154E-1,2.8760413E-2,-3.6673527E-2,4.859498E-2,1.0785866E-1,5.488363E-2,1.0278465E-1],"categories":[],"categories_nodes":[],"categories_segments":[],"categories_sizes":[],"default_left":[0,0,0,0,0,0,0,0,0,0,0,0,0,0,0],"id":21,"left_children":[1,-1,3,5,7,9,11,13,-1,-1,-1,-1,-1,-1,-1],"loss_changes":[3.4160493E3,0E0,4.4662354E2,2.115882E2,2.0516357E0,1.56653E2,8.0047424E1,1.963028E0,0E0,0E0,0E0,0E0,0E0,0E0,0E0],"parents":[2147483647,0,0,2,2,3,3,4,4,5,5,6,6,7,7],"right_children":[2,-1,4,6,8,10,12,14,-1,-1,-1,-1,-1,-1,-1],"split_conditions":[6.7E0,-1.0623097E-1,7.5E1,3.75E1,1E2,7.8E0,8E1,1E2,1.06405154E-1,2.8760413E-2,-3.6673527E-2,4.859498E-2,1.0785866E-1,5.488363E-2,1.0278465E-1],"split_indices":[5,0,5,7,5,0,7,7,0,0,0,0,0,0,0],"split_type":[0,0,0,0,0,0,0,0,0,0,0,0,0,0,0],"sum_hessian":[6.156855E3,2.0443881E3,4.112467E3,2.9830308E3,1.1294364E3,1.7297211E3,1.2533096E3,4.3060112E1,1.0863762E3,1.205579E3,5.241421E2,9.5290094E2,3.0040863E2,2.2952284E1,2.0107828E1],"tree_param":{"num_deleted":"0","num_feature":"8","num_nodes":"15","size_leaf_vector":"1"}},{"base_weights":[-6.1401124E-3,-1.05592966E-1,4.8945624E-1,2.9227194E-1,1.0466645E0,-1.0605782E-1,3.4227684E-1,7.6455355E-1,1.05739795E-1,5.0734855E-2,-6.951426E-4,5.1874973E-2,1.0160484E-1],"categories":[],"categories_nodes":[],"categories_segments":[],"categories_sizes":[],"default_left":[0,0,0,0,0,0,0,0,0,0,0,0,0],"id":22,"left_children":[1,-1,3,5,7,-1,9,11,-1,-1,-1,-1,-1],"loss_changes":[3.01989E3,0E0,4.329225E2,1.9747649E2,2.3111572E0,0E0,1.620314E2,2.030449E0,0E0,0E0,0E0,0E0,0E0],"parents":[2147483647,0,0,2,2,3,3,4,4,6,6,7,7],"right_children":[2,-1,4,6,8,-1,10,12,-1,-1,-1,-1,-1],"split_conditions":[6.7E0,-1.05592966E-1,7.5E1,5.3E0,1E2,-1.0605782E-1,1.15E1,1E2,1.05739795E-1,5.0734855E-2,-6.951426E-4,5.1874973E-2,1.0160484E-1],"split_indices":[5,0,5,7,5,0,4,7,0,0,0,0,0],"split_type":[0,0,0,0,0,0,0,0,0,0,0,0,0],"sum_hessian":[5.8024526E3,1.8604506E3,3.9420022E3,2.9127617E3,1.0292405E3,1.03105286E2,2.8096565E3,4.037158E1,9.888689E2,1.9075509E3,9.0210547E2,2.1965647E1,1.8405931E1],"tree_param":{"num_deleted":"0","num_feature":"8","num_nodes":"13","size_leaf_vector":"1"}},{"base_weights":[-6.383732E-3,-9.9278927E-1,4.8882037E-1,-1.050215E-1,-2.7120054E-1,2.974997E-1,1.0395678E0,-5.9480464E-1,6.706513E-2,2.1232167E-1,1.0560504E0,7.382439E-1,1.0514323E-1,-3.9204687E-2,-1.496333E-1,1.42732905E-2,-2.0655756E-1,4.0378366E-2,-1.8686496E-2,6.4221E-2,1.0698328E-1,4.893128E-2,1.0047169E-1],"categories":[],"categories_nodes":[],"categories_segments":[],"categories_sizes":[],"default_left":[0,0,0,0,0,0,0,0,0,0,0,0,0,0,0,0,0,0,0,0,0,0,0],"id":23,"left_children":[1,3,5,-1,7,9,11,13,15,17,19,21,-1,-1,-1,-1,-1,-1,-1,-1,-1,-1,-1],"loss_changes":[2.671888E3,7.5472534E1,3.8341174E2,0E0,1.4939824E1,1.7449765E2,2.5789185E0,1.2148016E1,1.1179308E1,1.859838E2,8.686218E-1,2.089407E0,0E0,0E0,0E0,0E0,0E0,0E0,0E0,0E0,0E0,0E0,0E0],"parents":[2147483647,0,0,1,1,2,2,4,4,5,5,6,6,7,7,8,8,9,9,10,10,11,11],"right_children":[2,4,6,-1,8,10,12,14,16,18,20,22,-1,-1,-1,-1,-1,-1,-1,-1,-1,-1,-1],"split_conditions":[1.67E1,6.7E0,7.5E1,-1.050215E-1,2E1,7.5E1,1E2,1.3E1,1.4E1,1.15E1,1E2,1E2,1.0514323E-1,-3.9204687E-2,-1.496333E-1,1.42732905E-2,-2.0655756E-1,4.0378366E-2,-1.8686496E-2,6.4221E-2,1.0698328E-1,4.893128E-2,1.0047169E-1],"split_indices":[5,5,5,0,7,7,5,0,2,4,7,7,0,0,0,0,0,0,0,0,0,0,0],"split_type":[0,0,0,0,0,0,0,0,0,0,0,0,0,0,0,0,0,0,0,0,0,0,0],"sum_hessian":[5.4678955E3,1.82722E3,3.6406755E3,1.6921029E3,1.35117E2,2.7031765E3,9.374991E2,6.866744E1,6.644956E1,2.43143E3,2.7174658E2,3.7909927E1,8.995892E2,5.723084E1,1.14366045E1,6.507377E1,1.3757964E0,1.6432607E3,7.881691E2,1.0292502E1,2.6145407E2,2.1066492E1,1.6843435E1],"tree_param":{"num_deleted":"0","num_feature":"8","num_nodes":"23","size_leaf_vector":"1"}},{"base_weights":[-6.3747144E-3,-1.0450882E-1,4.3337688E-1,2.4904174E-1,1.0329591E0,-9.215591E-2,4.4838536E-1,7.1183133E-1,1.0460726E-1,1.3254851E-2,-5.5057693E-2,6.4134136E-2,1.3271001E-2,4.6059977E-2,9.937327E-2],"categories":[],"categories_nodes":[],"categories_segments":[],"categories_sizes":[],"default_left":[0,0,0,0,0,0,0,0,0,0,0,0,0,0,0],"id":24,"left_children":[1,-1,3,5,7,9,11,13,-1,-1,-1,-1,-1,-1,-1],"loss_changes":[2.3637708E3,0E0,4.0157532E2,1.8926729E2,2.854187E0,1.0584553E2,1.0689197E2,2.1385612E0,0E0,0E0,0E0,0E0,0E0,0E0,0E0],"parents":[2147483647,0,0,2,2,3,3,4,4,5,5,6,6,7,7],"right_children":[2,-1,4,6,8,10,12,14,-1,-1,-1,-1,-1,-1,-1],"split_conditions":[6.7E0,-1.0450882E-1,7.5E1,2.86E1,1E2,7.8E0,1.15E1,1E2,1.0460726E-1,1.3254851E-2,-5.5057693E-2,6.4134136E-2,1.3271001E-2,4.6059977E-2,9.937327E-2],"split_indices":[5,0,5,7,5,0,4,7,0,0,0,0,0,0,0],"split_type":[0,0,0,0,0,0,0,0,0,0,0,0,0,0,0],"sum_hessian":[5.172911E3,1.5382106E3,3.6347007E3,2.7810974E3,8.536032E2,1.0258259E3,1.7552715E3,3.5658863E1,8.1794434E2,6.888721E2,3.3695383E2,1.0887458E3,6.665256E2,2.0247828E1,1.5411035E1],"tree_param":{"num_deleted":"0","num_feature":"8","num_nodes":"15","size_leaf_vector":"1"}},{"base_weights":[-6.3190223E-3,-1.0404815E-1,4.0656084E-1,2.2944173E-1,1.0267557E0,1.5113671E-1,1.0559249E-1,6.8532705E-1,1.041248E-1,3.0374233E-2,-2.645686E-2,4.3268587E-2,9.829905E-2],"categories":[],"categories_nodes":[],"categories_segments":[],"categories_sizes":[],"default_left":[0,0,0,0,0,0,0,0,0,0,0,0,0],"id":25,"left_children":[1,-1,3,5,7,9,-1,11,-1,-1,-1,-1,-1],"loss_changes":[2.0930986E3,0E0,3.8460394E2,1.7628719E2,3.1359253E0,1.581457E2,0E0,2.1768646E0,0E0,0E0,0E0,0E0,0E0],"parents":[2147483647,0,0,2,2,3,3,4,4,5,5,7,7],"right_children":[2,-1,4,6,8,10,-1,12,-1,-1,-1,-1,-1],"split_conditions":[6.7E0,-1.0404815E-1,7.5E1,8E1,1E2,8.1E0,1.0559249E-1,1E2,1.041248E-1,3.0374233E-2,-2.645686E-2,4.3268587E-2,9.829905E-2],"split_indices":[5,0,5,7,5,0,0,7,0,0,0,0,0],"split_type":[0,0,0,0,0,0,0,0,0,0,0,0,0],"sum_hessian":[4.9000537E3,1.3976827E3,3.502371E3,2.7254033E3,7.769678E2,2.4906135E3,2.3478993E2,3.3602642E1,7.433651E2,1.8220189E3,6.685946E2,1.9503061E1,1.409958E1],"tree_param":{"num_deleted":"0","num_feature":"8","num_nodes":"13","size_leaf_vector":"1"}},{"base_weights":[-6.2121223E-3,-1.0383115E-1,3.806063E-1,3.883982E-2,7.0162517E-1,-1.02629535E-1,1.0457854E-1,4.867405E-1,1.0328864E0,1.7027898E-2,-1.0085118E-1,-2.2541331E-1,5.0910737E-2,6.940684E-2,1.03689626E-1],"categories":[],"categories_nodes":[],"categories_segments":[],"categories_sizes":[],"default_left":[0,0,0,0,0,0,0,0,0,0,0,0,0,0,0],"id":26,"left_children":[1,-1,3,5,7,-1,9,11,13,-1,-1,-1,-1,-1,-1],"loss_changes":[1.8592598E3,0E0,3.716254E2,1.150658E2,1.2383276E2,0E0,1.133229E2,6.6212906E1,2.1282959E-1,0E0,0E0,0E0,0E0,0E0,0E0],"parents":[2147483647,0,0,2,2,3,3,4,4,6,6,7,7,8,8],"right_children":[2,-1,4,6,8,-1,10,12,14,-1,-1,-1,-1,-1,-1],"split_conditions":[5.3E0,-1.0383115E-1,5E1,6.7E0,8E1,-1.02629535E-1,1.44E1,5E0,1E2,1.7027898E-2,-1.0085118E-1,-2.2541331E-1,5.0910737E-2,6.940684E-2,1.03689626E-1],"split_indices":[7,0,5,5,5,0,4,6,5,0,0,0,0,0,0],"split_type":[0,0,0,0,0,0,0,0,0,0,0,0,0,0,0],"sum_hessian":[4.655066E3,1.2685823E3,3.386484E3,1.6407803E3,1.7457036E3,9.453065E1,1.5462496E3,1.0603429E3,6.853607E2,1.4608685E3,8.538112E1,7.775207E0,1.0525677E3,1.0052512E1,6.753082E2],"tree_param":{"num_deleted":"0","num_feature":"8","num_nodes":"15","size_leaf_vector":"1"}},{"base_weights":[-6.370708E-3,-1.034382E-1,3.5673666E-1,1.9439046E-1,1.0170939E0,-3.3736148E-1,3.178303E-1,6.6609883E-1,1.0329621E-1,-1.02163635E-1,-1.9093886E-2,-2.4799882E-1,3.3915736E-2,8.1367776E-2,5.7457252E-3],"categories":[],"categories_nodes":[],"categories_segments":[],"categories_sizes":[],"default_left":[0,0,0,0,0,0,0,0,0,0,0,0,0,0,0],"id":27,"left_children":[1,-1,3,5,7,9,11,13,-1,-1,-1,-1,-1,-1,-1],"loss_changes":[1.648895E3,0E0,3.497608E2,1.7217535E2,2.8984375E0,4.933717E1,1.2782022E2,2.7079191E0,0E0,0E0,0E0,0E0,0E0,0E0,0E0],"parents":[2147483647,0,0,2,2,3,3,4,4,5,5,6,6,7,7],"right_children":[2,-1,4,6,8,10,12,14,-1,-1,-1,-1,-1,-1,-1],"split_conditions":[5.3E0,-1.034382E-1,7.5E1,2.5E1,1E2,6.7E0,5E0,8E0,1.0329621E-1,-1.02163635E-1,-1.9093886E-2,-2.4799882E-1,3.3915736E-2,8.1367776E-2,5.7457252E-3],"split_indices":[7,0,5,5,5,5,6,2,0,0,0,0,0,0,0],"split_type":[0,0,0,0,0,0,0,0,0,0,0,0,0,0,0],"sum_hessian":[4.4153433E3,1.1520027E3,3.2633406E3,2.620416E3,6.4292456E2,4.933667E2,2.1270493E3,2.966789E1,6.1325665E2,8.590954E1,4.0745715E2,1.521917E1,2.11183E3,2.3606972E1,6.060919E0],"tree_param":{"num_deleted":"0","num_feature":"8","num_nodes":"15","size_leaf_vector":"1"}},{"base_weights":[-6.555057E-3,-1.03083454E-1,3.33658E-1,1.8208334E-1,1.0288553E0,-1.7374459E-1,3.6282232E-1,6.084423E-1,1.037429E-1,2.2437794E-2,-3.5470422E-2,5.630086E-2,1.6865026E-3,7.36769E-2,-4.4390354E-2],"categories":[],"categories_nodes":[],"categories_segments":[],"categories_sizes":[],"default_left":[0,0,0,0,0,0,0,0,0,0,0,0,0,0,0],"id":28,"left_children":[1,-1,3,5,7,9,11,13,-1,-1,-1,-1,-1,-1,-1],"loss_changes":[1.4630088E3,0E0,3.3190695E2,1.6654382E2,1.4014282E0,6.2948418E1,1.1890288E2,2.175653E0,0E0,0E0,0E0,0E0,0E0,0E0,0E0],"parents":[2147483647,0,0,2,2,3,3,4,4,5,5,6,6,7,7],"right_children":[2,-1,4,6,8,10,12,14,-1,-1,-1,-1,-1,-1,-1],"split_conditions":[5.3E0,-1.03083454E-1,7.5E1,3.33E1,1E2,8.666667E0,1.15E1,9.7E0,1.037429E-1,2.2437794E-2,-3.5470422E-2,5.630086E-2,1.6865026E-3,7.36769E-2,-4.4390354E-2],"split_indices":[7,0,7,5,7,4,4,0,0,0,0,0,0,0,0],"split_type":[0,0,0,0,0,0,0,0,0,0,0,0,0,0,0],"sum_hessian":[4.1963516E3,1.045783E3,3.1505686E3,2.5876436E3,5.6292505E2,8.716435E2,1.7160001E3,1.2688856E1,5.502362E2,2.723083E2,5.993352E2,1.0866112E3,6.293889E2,1.1576997E1,1.1118593E0],"tree_param":{"num_deleted":"0","num_feature":"8","num_nodes":"15","size_leaf_vector":"1"}},{"base_weights":[-6.3683596E-3,-1.0263672E-1,3.1288207E-1,1.6208512E-1,1.0064847E0,9.293723E-2,1.037842E-1,5.883783E-1,1.02700554E-1,5.054626E-2,-5.730106E-3,7.3987864E-2,-3.5384958E-4],"categories":[],"categories_nodes":[],"categories_segments":[],"categories_sizes":[],"default_left":[0,0,0,0,0,0,0,0,0,0,0,0,0],"id":29,"left_children":[1,-1,3,5,7,9,-1,11,-1,-1,-1,-1,-1],"loss_changes":[1.3058234E3,0E0,3.1928253E2,1.5189713E2,4.0738525E0,1.4427191E2,0E0,2.5000763E0,0E0,0E0,0E0,0E0,0E0],"parents":[2147483647,0,0,2,2,3,3,4,4,5,5,7,7],"right_children":[2,-1,4,6,8,10,-1,12,-1,-1,-1,-1,-1],"split_conditions":[6.7E0,-1.0263672E-1,7.5E1,8E1,1E2,8.8E0,1.037842E-1,8E0,1.02700554E-1,5.054626E-2,-5.730106E-3,7.3987864E-2,-3.5384958E-4],"split_indices":[5,0,5,7,5,4,0,2,0,0,0,0,0],"split_type":[0,0,0,0,0,0,0,0,0,0,0,0,0],"sum_hessian":[4.0080962E3,9.5492255E2,3.0531736E3,2.5089365E3,5.4423706E2,2.3263584E3,1.8257814E2,2.6849922E1,5.1738715E2,6.204254E2,1.705933E3,2.117917E1,5.670751E0],"tree_param":{"num_deleted":"0","num_feature":"8","num_nodes":"13","size_leaf_vector":"1"}},{"base_weights":[-6.095286E-3,-1.0252666E-1,2.918806E-1,1.4948876E-1,1.0031084E0,8.56209E-2,1.0319506E0,5.883966E-1,1.0239804E-1,2.0146277E-2,-4.247195E-2,4.8031814E-2,1.03762984E-1,7.528729E-2,-3.2368168E-4],"categories":[],"categories_nodes":[],"categories_segments":[],"categories_sizes":[],"default_left":[0,0,0,0,0,0,0,0,0,0,0,0,0,0,0],"id":30,"left_children":[1,-1,3,5,7,9,11,13,-1,-1,-1,-1,-1,-1,-1],"loss_changes":[1.1663945E3,0E0,3.0082214E2,1.3953595E2,3.6870728E0,1.3672206E2,2.5131226E-2,2.5419092E0,0E0,0E0,0E0,0E0,0E0,0E0,0E0],"parents":[2147483647,0,0,2,2,3,3,4,4,5,5,6,6,7,7],"right_children":[2,-1,4,6,8,10,12,14,-1,-1,-1,-1,-1,-1,-1],"split_conditions":[5.3E0,-1.0252666E-1,7.5E1,8E1,1E2,1.1E1,1E2,8E0,1.0239804E-1,2.0146277E-2,-4.247195E-2,4.8031814E-2,1.03762984E-1,7.528729E-2,-3.2368168E-4],"split_indices":[7,0,5,7,5,0,7,2,0,0,0,0,0,0,0],"split_type":[0,0,0,0,0,0,0,0,0,0,0,0,0,0,0],"sum_hessian":[3.838775E3,8.6788715E2,2.9708877E3,2.476324E3,4.945639E2,2.3102197E3,1.6610428E2,2.5096827E1,4.6946707E2,1.8833291E3,4.268905E2,2.5646868E0,1.6353958E2,1.9424274E1,5.672553E0],"tree_param":{"num_deleted":"0","num_feature":"8","num_nodes":"15","size_leaf_vector":"1"}},{"base_weights":[-5.8288774E-3,-1.0213143E-1,2.726088E-1,1.415322E-1,1.0139227E0,8.051754E-2,1.0268209E0,5.327215E-1,1.02121785E-1,2.5140002E-2,-2.4869675E-2,4.6041068E-2,1.0327895E-1,7.205441E-2,-3.3561297E-2],"categories":[],"categories_nodes":[],"categories_segments":[],"categories_sizes":[],"default_left":[0,0,0,0,0,0,0,0,0,0,0,0,0,0,0],"id":31,"left_children":[1,-1,3,5,7,9,11,13,-1,-1,-1,-1,-1,-1,-1],"loss_changes":[1.0421617E3,0E0,2.8093552E2,1.3275365E2,9.8114014E-1,1.2955164E2,6.0256958E-2,1.6409619E0,0E0,0E0,0E0,0E0,0E0,0E0,0E0],"parents":[2147483647,0,0,2,2,3,3,4,4,5,5,6,6,7,7],"right_children":[2,-1,4,6,8,10,12,14,-1,-1,-1,-1,-1,-1,-1],"split_conditions":[6.7E0,-1.0213143E-1,8E1,8E1,1E2,1.15E1,1E2,8E0,1.02121785E-1,2.5140002E-2,-2.4869675E-2,4.6041068E-2,1.0327895E-1,7.205441E-2,-3.3561297E-2],"split_indices":[5,0,5,7,5,4,7,2,0,0,0,0,0,0,0],"split_type":[0,0,0,0,0,0,0,0,0,0,0,0,0,0,0],"sum_hessian":[3.68383E3,7.921446E2,2.8916855E3,2.4582222E3,4.3346347E2,2.3007441E3,1.5747781E2,7.578782E0,4.2588467E2,1.5147383E3,7.86006E2,2.4569216E0,1.5502089E2,6.370935E0,1.207847E0],"tree_param":{"num_deleted":"0","num_feature":"8","num_nodes":"15","size_leaf_vector":"1"}},{"base_weights":[-5.5558663E-3,-1.0206995E-1,2.537861E-1,1.307162E-1,1.011493E0,7.446297E-2,1.0217464E0,5.4030526E-1,1.0186861E-1,2.1307653E-2,-2.9040074E-2,4.410563E-2,1.0282872E-1,7.417597E-2,-3.133878E-2],"categories":[],"categories_nodes":[],"categories_segments":[],"categories_sizes":[],"default_left":[0,0,0,0,0,0,0,0,0,0,0,0,0,0,0],"id":32,"left_children":[1,-1,3,5,7,9,11,13,-1,-1,-1,-1,-1,-1,-1],"loss_changes":[9.331211E2,0E0,2.6312845E2,1.2171448E2,7.8604126E-1,1.1570702E2,9.420776E-2,1.6183958E0,0E0,0E0,0E0,0E0,0E0,0E0,0E0],"parents":[2147483647,0,0,2,2,3,3,4,4,5,5,6,6,7,7],"right_children":[2,-1,4,6,8,10,12,14,-1,-1,-1,-1,-1,-1,-1],"split_conditions":[5.3E0,-1.0206995E-1,8E1,8E1,1E2,8.1E0,1E2,1.2E1,1.0186861E-1,2.1307653E-2,-2.9040074E-2,4.410563E-2,1.0282872E-1,7.417597E-2,-3.133878E-2],"split_indices":[7,0,5,7,5,0,7,0,0,0,0,0,0,0,0],"split_type":[0,0,0,0,0,0,0,0,0,0,0,0,0,0,0],"sum_hessian":[3.5423755E3,7.2023193E2,2.8221436E3,2.4288176E3,3.9332605E2,2.2856045E3,1.4321304E2,7.058704E0,3.8626736E2,1.6566506E3,6.2895386E2,2.357372E0,1.4085567E2,5.8171015E0,1.2416023E0],"tree_param":{"num_deleted":"0","num_feature":"8","num_nodes":"15","size_leaf_vector":"1"}},{"base_weights":[-5.2869366E-3,-1.0171516E-1,2.362902E-1,1.2233166E-1,1.0163569E-1,-3.930141E-2,4.2097232E-1,2.6755327E-2,-2.7247107E-2,4.8841238E-2,-7.3239975E-2],"categories":[],"categories_nodes":[],"categories_segments":[],"categories_sizes":[],"default_left":[0,0,0,0,0,0,0,0,0,0,0],"id":33,"left_children":[1,-1,3,5,-1,7,9,-1,-1,-1,-1],"loss_changes":[8.347829E2,0E0,2.4494838E2,1.16183525E2,0E0,1.1186095E2,6.610057E1,0E0,0E0,0E0,0E0],"parents":[2147483647,0,0,2,2,3,3,5,5,6,6],"right_children":[2,-1,4,6,-1,8,10,-1,-1,-1,-1],"split_conditions":[6.7E0,-1.0171516E-1,1E2,4.29E1,1.0163569E-1,9.5E0,1.64E1,2.6755327E-2,-2.7247107E-2,4.8841238E-2,-7.3239975E-2],"split_indices":[5,0,5,7,0,4,4,0,0,0,0],"split_type":[0,0,0,0,0,0,0,0,0,0,0],"sum_hessian":[3.4130532E3,6.5718256E2,2.7558706E3,2.405598E3,3.5027267E2,1.5613942E3,8.442038E2,6.7410913E2,8.87285E2,7.9811304E2,4.609078E1],"tree_param":{"num_deleted":"0","num_feature":"8","num_nodes":"11","size_leaf_vector":"1"}},{"base_weights":[-5.025664E-3,-1.0168364E-1,2.193564E-1,1.1294067E-1,1.0190429E-1,6.155585E-2,1.0106992E-1,4.282379E-2,-6.555748E-3],"categories":[],"categories_nodes":[],"categories_segments":[],"categories_sizes":[],"default_left":[0,0,0,0,0,0,0,0,0],"id":34,"left_children":[1,-1,3,5,-1,7,-1,-1,-1],"loss_changes":[7.4800226E2,0E0,2.2937138E2,1.0978108E2,0E0,1.0505316E2,0E0,0E0,0E0],"parents":[2147483647,0,0,2,2,3,3,5,5],"right_children":[2,-1,4,6,-1,8,-1,-1,-1],"split_conditions":[5.3E0,-1.0168364E-1,1E2,1E2,1.0190429E-1,8.8E0,1.0106992E-1,4.282379E-2,-6.555748E-3],"split_indices":[7,0,7,5,0,4,0,0,0],"split_type":[0,0,0,0,0,0,0,0,0],"sum_hessian":[3.2927146E3,5.970214E2,2.695693E3,2.380109E3,3.1558417E2,2.2522651E3,1.2784387E2,5.7917065E2,1.6730944E3],"tree_param":{"num_deleted":"0","num_feature":"8","num_nodes":"9","size_leaf_vector":"1"}},{"base_weights":[-4.7466634E-3,-1.0137029E-1,2.0410794E-1,1.0493333E-1,1.01657234E-1,2.1211839E-1,-3.585463E-1,-2.1950005E-1,2.3386588E-2,2.7298553E-2,-8.313165E-2],"categories":[],"categories_nodes":[],"categories_segments":[],"categories_sizes":[],"default_left":[0,0,0,0,0,0,0,0,0,0,0],"id":35,"left_children":[1,-1,3,5,-1,7,9,-1,-1,-1,-1],"loss_changes":[6.717725E2,0E0,2.127103E2,1.1706734E2,0E0,1.006718E2,1.3240274E2,0E0,0E0,0E0,0E0],"parents":[2147483647,0,0,2,2,3,3,5,5,6,6],"right_children":[2,-1,4,6,-1,8,10,-1,-1,-1,-1],"split_conditions":[6.7E0,-1.0137029E-1,1E2,1.1E1,1.01657234E-1,5E0,8.75E0,-2.1950005E-1,2.3386588E-2,2.7298553E-2,-8.313165E-2],"split_indices":[5,0,7,0,0,6,4,0,0,0,0],"split_type":[0,0,0,0,0,0,0,0,0,0,0],"sum_hessian":[3.1859268E3,5.457257E2,2.640201E3,2.3539873E3,2.8621365E2,1.9122903E3,4.4169708E2,1.6227436E1,1.8960629E3,1.8927882E2,2.5241824E2],"tree_param":{"num_deleted":"0","num_feature":"8","num_nodes":"11","size_leaf_vector":"1"}},{"base_weights":[-4.6120803E-3,-9.8711574E-1,1.9426553E-1,-1.0136187E-1,-4.125273E-1,9.8239355E-2,1.0110265E-1,-1.6494545E-1,-2.2831316E-1,5.4391574E-2,1.01539254E-1,9.9488E-2,-4.2025145E-2,1.2423428E-2,-6.153229E-2],"categories":[],"categories_nodes":[],"categories_segments":[],"categories_sizes":[],"default_left":[0,0,0,0,0,0,0,0,0,0,0,0,0,0,0],"id":36,"left_children":[1,3,5,-1,7,9,-1,11,-1,13,-1,-1,-1,-1,-1],"loss_changes":[6.031848E2,7.4954834E0,2.0125565E2,0E0,1.1015958E1,9.237244E1,0E0,7.169943E0,0E0,1.0272442E2,0E0,0E0,0E0,0E0,0E0],"parents":[2147483647,0,0,1,1,2,2,4,4,5,5,7,7,9,9],"right_children":[2,4,6,-1,8,10,-1,12,-1,14,-1,-1,-1,-1,-1],"split_conditions":[1.05E1,5.3E0,1E2,-1.0136187E-1,5.9E2,1E2,1.0110265E-1,7E0,-2.2831316E-1,1.44E1,1.01539254E-1,9.9488E-2,-4.2025145E-2,1.2423428E-2,-6.153229E-2],"split_indices":[7,7,5,0,1,7,0,3,0,4,0,0,0,0,0],"split_type":[0,0,0,0,0,0,0,0,0,0,0,0,0,0,0],"sum_hessian":[3.0849736E3,5.186674E2,2.5663064E3,4.9506827E2,2.3599154E1,2.2973306E3,2.6897574E2,2.1801779E1,1.7973737E0,2.1935208E3,1.0380977E2,3.4106731E0,1.8391106E1,1.9871055E3,2.0641533E2],"tree_param":{"num_deleted":"0","num_feature":"8","num_nodes":"15","size_leaf_vector":"1"}},{"base_weights":[-4.3854103E-3,-1.01077214E-1,1.7528862E-1,8.616714E-2,1.0092515E-1,2.1730489E-1,-2.3078851E-1,-1.9570665E-1,2.3814682E-2,1.571383E-2,-7.211699E-2],"categories":[],"categories_nodes":[],"categories_segments":[],"categories_sizes":[],"default_left":[0,0,0,0,0,0,0,0,0,0,0],"id":37,"left_children":[1,-1,3,5,-1,7,9,-1,-1,-1,-1],"loss_changes":[5.420841E2,0E0,1.8897626E2,9.561893E1,0E0,7.419346E1,1.282123E2,0E0,0E0,0E0,0E0],"parents":[2147483647,0,0,2,2,3,3,5,5,6,6],"right_children":[2,-1,4,6,-1,8,10,-1,-1,-1,-1],"split_conditions":[6.7E0,-1.01077214E-1,1E2,7.8E0,1.0092515E-1,5E0,9.6E0,-1.9570665E-1,2.3814682E-2,1.571383E-2,-7.211699E-2],"split_indices":[5,0,5,0,0,6,4,0,0,0,0],"split_type":[0,0,0,0,0,0,0,0,0,0,0],"sum_hessian":[2.9959155E3,4.5314465E2,2.5427708E3,2.2982695E3,2.4450131E2,1.6258868E3,6.723826E2,1.4554569E1,1.6113323E3,3.757874E2,2.965952E2],"tree_param":{"num_deleted":"0","num_feature":"8","num_nodes":"11","size_leaf_vector":"1"}},{"base_weights":[-4.2228717E-3,-1.0108948E-1,1.6152939E-1,7.868935E-2,1.0113119E-1,-3.4279066E-1,1.7514314E-1,-8.765678E-2,-1.9869901E-2,2.1525096E-2,-1.08554736E-1],"categories":[],"categories_nodes":[],"categories_segments":[],"categories_sizes":[],"default_left":[0,0,0,0,0,0,0,0,0,0,0],"id":38,"left_children":[1,-1,3,5,-1,7,9,-1,-1,-1,-1],"loss_changes":[4.8605362E2,0E0,1.7599307E2,9.275338E1,0E0,3.251033E1,9.408649E1,0E0,0E0,0E0,0E0],"parents":[2147483647,0,0,2,2,3,3,5,5,6,6],"right_children":[2,-1,4,6,-1,8,10,-1,-1,-1,-1],"split_conditions":[5.3E0,-1.0108948E-1,1E2,2.22E1,1.0113119E-1,8E-1,1.64E1,-8.765678E-2,-1.9869901E-2,2.1525096E-2,-1.08554736E-1],"split_indices":[7,0,7,5,0,0,4,0,0,0,0],"split_type":[0,0,0,0,0,0,0,0,0,0,0],"sum_hessian":[2.9109963E3,4.1082327E2,2.500173E3,2.2790913E3,2.2108192E2,4.2395505E2,1.8551362E3,8.903775E1,3.349173E2,1.7987401E3,5.639616E1],"tree_param":{"num_deleted":"0","num_feature":"8","num_nodes":"11","size_leaf_vector":"1"}},{"base_weights":[-4.066182E-3,-1.0080717E-1,1.4909562E-1,6.946555E-2,1.0066066E-1,-2.8299028E-1,1.7297244E-1,-8.289213E-3,-6.522709E-2,2.9764352E-2,-2.2592047E-2],"categories":[],"categories_nodes":[],"categories_segments":[],"categories_sizes":[],"default_left":[0,0,0,0,0,0,0,0,0,0,0],"id":39,"left_children":[1,-1,3,5,-1,7,9,-1,-1,-1,-1],"loss_changes":[4.358827E2,0E0,1.6786612E2,8.218674E1,0E0,3.7740627E1,8.6647995E1,0E0,0E0,0E0,0E0],"parents":[2147483647,0,0,2,2,3,3,5,5,6,6],"right_children":[2,-1,4,6,-1,8,10,-1,-1,-1,-1],"split_conditions":[6.7E0,-1.0080717E-1,1E2,2.22E1,1.0066066E-1,7.8E0,1.3E1,-8.289213E-3,-6.522709E-2,2.9764352E-2,-2.2592047E-2],"split_indices":[5,0,5,7,0,0,4,0,0,0,0],"split_type":[0,0,0,0,0,0,0,0,0,0,0],"sum_hessian":[2.8325654E3,3.741775E2,2.458388E3,2.2504849E3,2.0790323E2,5.1048297E2,1.7400018E3,3.318769E2,1.786061E2,1.3258658E3,4.1413593E2],"tree_param":{"num_deleted":"0","num_feature":"8","num_nodes":"11","size_leaf_vector":"1"}},{"base_weights":[-3.8317975E-3,-1.0083319E-1,1.3761367E-1,6.370925E-2,1.0085841E-1,1.2751514E-1,-5.219616E-1,2.3012338E-2,-2.2938807E-2,-2.6957143E-2,-1.6818275E-1],"categories":[],"categories_nodes":[],"categories_segments":[],"categories_sizes":[],"default_left":[0,0,0,0,0,0,0,0,0,0,0],"id":40,"left_children":[1,-1,3,5,-1,7,9,-1,-1,-1,-1],"loss_changes":[3.92494E2,0E0,1.5580415E2,8.351832E1,0E0,7.382912E1,6.3828262E1,0E0,0E0,0E0,0E0],"parents":[2147483647,0,0,2,2,3,3,5,5,6,6],"right_children":[2,-1,4,6,-1,8,10,-1,-1,-1,-1],"split_conditions":[5.3E0,-1.0083319E-1,1E2,1.7E1,1.0085841E-1,1.3E1,1.1E1,2.3012338E-2,-2.2938807E-2,-2.6957143E-2,-1.6818275E-1],"split_indices":[7,0,7,0,0,4,4,0,0,0,0],"split_type":[0,0,0,0,0,0,0,0,0,0,0],"sum_hessian":[2.7604707E3,3.3997183E2,2.4204988E3,2.232166E3,1.8833275E2,2.0135791E3,2.1858702E2,1.5642257E3,4.4935342E2,1.8053458E2,3.8052444E1],"tree_param":{"num_deleted":"0","num_feature":"8","num_nodes":"11","size_leaf_vector":"1"}},{"base_weights":[-3.6282046E-3,-1.00585215E-1,1.2731539E-1,5.6389738E-2,1.0042518E-1,-8.4338136E-2,3.030829E-1,1.745916E-2,-2.715212E-2,2.2867661E-2,1.0049067E-1],"categories":[],"categories_nodes":[],"categories_segments":[],"categories_sizes":[],"default_left":[0,0,0,0,0,0,0,0,0,0,0],"id":41,"left_children":[1,-1,3,5,-1,7,9,-1,-1,-1,-1],"loss_changes":[3.5438098E2,0E0,1.4849174E2,7.6773186E1,0E0,6.831134E1,4.1715195E1,0E0,0E0,0E0,0E0],"parents":[2147483647,0,0,2,2,3,3,5,5,6,6],"right_children":[2,-1,4,6,-1,8,10,-1,-1,-1,-1],"split_conditions":[6.7E0,-1.00585215E-1,1E2,3.75E1,1.0042518E-1,9.5E0,1E2,1.745916E-2,-2.715212E-2,2.2867661E-2,1.0049067E-1],"split_indices":[5,0,5,7,0,4,7,0,0,0,0],"split_type":[0,0,0,0,0,0,0,0,0,0,0],"sum_hessian":[2.6983826E3,3.1104053E2,2.387342E3,2.2096892E3,1.7765294E2,1.4074547E3,8.0223444E2,5.905777E2,8.168771E2,7.265342E2,7.570025E1],"tree_param":{"num_deleted":"0","num_feature":"8","num_nodes":"11","size_leaf_vector":"1"}},{"base_weights":[-3.261513E-3,-1.0738693E0,1.0976473E-1,-1.0031053E-1,-1.8722843E0,4.476787E-2,1.0027299E-1,-5.1032968E-2,-1.9189706E-1,1.6484971E-1,-2.4379249E-1,-2.9985688E-3,3.3602756E-2,8.359607E-3,-6.412521E-2],"categories":[],"categories_nodes":[],"categories_segments":[],"categories_sizes":[],"default_left":[0,0,0,0,0,0,0,0,0,0,0,0,0,0,0],"id":42,"left_children":[1,3,5,-1,7,9,-1,-1,-1,11,13,-1,-1,-1,-1],"loss_changes":[3.1947226E2,1.2365692E1,1.3855664E2,0E0,2.5240326E-1,7.720966E1,0E0,0E0,0E0,5.2479355E1,8.526346E1,0E0,0E0,0E0,0E0],"parents":[2147483647,0,0,1,1,2,2,4,4,5,5,9,9,10,10],"right_children":[2,4,6,-1,8,10,-1,-1,-1,12,14,-1,-1,-1,-1],"split_conditions":[5E0,6.7E0,1E2,-1.0031053E-1,5.3E0,8.1E0,1.0027299E-1,-5.1032968E-2,-1.9189706E-1,8E-1,9.6E0,-2.9985688E-3,3.3602756E-2,8.359607E-3,-6.412521E-2],"split_indices":[6,5,5,0,7,0,0,0,0,0,4,0,0,0,0],"split_type":[0,0,0,0,0,0,0,0,0,0,0,0,0,0,0],"sum_hessian":[2.6381445E3,2.5110695E2,2.3870376E3,2.3273581E2,1.8371143E1,2.226058E3,1.6097948E2,1.0042987E0,1.7366844E1,1.5722211E3,6.5383716E2,7.3568536E2,8.365357E2,3.5895477E2,2.9488235E2],"tree_param":{"num_deleted":"0","num_feature":"8","num_nodes":"15","size_leaf_vector":"1"}},{"base_weights":[-2.9887734E-3,-1.0055256E-1,1.0952704E-1,4.9138393E-2,1.00435376E-1,-1.7917596E-1,1.7934808E-1,1.5924728E-2,-3.3074554E-2,2.2424167E-2,-8.052035E-2],"categories":[],"categories_nodes":[],"categories_segments":[],"categories_sizes":[],"default_left":[0,0,0,0,0,0,0,0,0,0,0],"id":43,"left_children":[1,-1,3,5,-1,7,9,-1,-1,-1,-1],"loss_changes":[2.9239648E2,0E0,1.2589013E2,6.496894E1,0E0,4.0770576E1,6.1685253E1,0E0,0E0,0E0,0E0],"parents":[2147483647,0,0,2,2,3,3,5,5,6,6],"right_children":[2,-1,4,6,-1,8,10,-1,-1,-1,-1],"split_conditions":[5.3E0,-1.0055256E-1,1E2,3.33E1,1.00435376E-1,4E0,1.64E1,1.5924728E-2,-3.3074554E-2,2.2424167E-2,-8.052035E-2],"split_indices":[7,0,7,5,0,2,4,0,0,0,0],"split_type":[0,0,0,0,0,0,0,0,0,0,0],"sum_hessian":[2.5901624E3,2.6056277E2,2.3295996E3,2.1833108E3,1.462889E2,7.9280383E2,1.3905068E3,2.4522252E2,5.475813E2,1.3306061E3,5.9900764E1],"tree_param":{"num_deleted":"0","num_feature":"8","num_nodes":"11","size_leaf_vector":"1"}},{"base_weights":[-2.768158E-3,-1.0029906E-1,1.010066E-1,4.3550596E-2,1.0004643E-1,3.554462E-1,-5.287809E-2,4.0097795E-3,4.963512E-2,1.2929285E-2,-3.9431885E-2],"categories":[],"categories_nodes":[],"categories_segments":[],"categories_sizes":[],"default_left":[0,0,0,0,0,0,0,0,0,0,0],"id":44,"left_children":[1,-1,3,5,-1,7,9,-1,-1,-1,-1],"loss_changes":[2.6385214E2,0E0,1.189769E2,6.5157425E1,0E0,2.27128E1,1.0300662E2,0E0,0E0,0E0,0E0],"parents":[2147483647,0,0,2,2,3,3,5,5,6,6],"right_children":[2,-1,4,6,-1,8,10,-1,-1,-1,-1],"split_conditions":[6.7E0,-1.0029906E-1,1E2,8.8E0,1.0004643E-1,2.5E1,5.7E0,4.0097795E-3,4.963512E-2,1.2929285E-2,-3.9431885E-2],"split_indices":[5,0,5,4,0,7,0,0,0,0,0],"split_type":[0,0,0,0,0,0,0,0,0,0,0],"sum_hessian":[2.540005E3,2.3794371E2,2.3020613E3,2.164824E3,1.3723727E2,5.1060425E2,1.6542197E3,1.5808693E2,3.5251733E2,1.0791016E3,5.7511816E2],"tree_param":{"num_deleted":"0","num_feature":"8","num_nodes":"11","size_leaf_vector":"1"}},{"base_weights":[-2.4519376E-3,-1.0775999E0,8.7220035E-2,-9.997414E-2,-1.7352732E-1,3.4100067E-2,1.0020234E-1,9.188706E-2,-4.5128232E-1,1.8375617E-2,-2.1589676E-2,-2.6076948E-2,-1.2409393E-1],"categories":[],"categories_nodes":[],"categories_segments":[],"categories_sizes":[],"default_left":[0,0,0,0,0,0,0,0,0,0,0,0,0],"id":45,"left_children":[1,3,5,-1,-1,7,-1,9,11,-1,-1,-1,-1],"loss_changes":[2.4062651E2,8.103775E0,1.1191433E2,0E0,0E0,6.1141296E1,0E0,5.5104618E1,3.4566353E1,0E0,0E0,0E0,0E0],"parents":[2147483647,0,0,1,1,2,2,5,5,7,7,8,8],"right_children":[2,4,6,-1,-1,8,-1,10,12,-1,-1,-1,-1],"split_conditions":[5E0,6.7E0,1E2,-9.997414E-2,-1.7352732E-1,1.7E1,1.0020234E-1,1.3E1,1.1E1,1.8375617E-2,-2.1589676E-2,-2.6076948E-2,-1.2409393E-1],"split_indices":[6,5,7,0,0,0,0,4,4,0,0,0,0],"split_type":[0,0,0,0,0,0,0,0,0,0,0,0,0],"sum_hessian":[2.4938752E3,1.9113924E2,2.302736E3,1.7315985E2,1.797938E1,2.1773416E3,1.25394615E2,1.9464218E3,2.309197E2,1.4993038E3,4.4711795E2,1.8710815E2,4.381153E1],"tree_param":{"num_deleted":"0","num_feature":"8","num_nodes":"13","size_leaf_vector":"1"}},{"base_weights":[-2.328337E-3,-1.0030371E-1,8.700809E-2,3.6322717E-2,9.9834636E-2,1.0191821E-2,9.9548064E-2,2.9992888E-2,-7.759899E-3],"categories":[],"categories_nodes":[],"categories_segments":[],"categories_sizes":[],"default_left":[0,0,0,0,0,0,0,0,0],"id":46,"left_children":[1,-1,3,5,-1,7,-1,-1,-1],"loss_changes":[2.1983574E2,0E0,1.0424159E2,5.361627E1,0E0,5.302923E1,0E0,0E0,0E0],"parents":[2147483647,0,0,2,2,3,3,5,5],"right_children":[2,-1,4,6,-1,8,-1,-1,-1],"split_conditions":[5.3E0,-1.0030371E-1,1E2,1E2,9.9834636E-2,8.8E0,9.9548064E-2,2.9992888E-2,-7.759899E-3],"split_indices":[7,0,5,7,0,4,0,0,0],"split_type":[0,0,0,0,0,0,0,0,0],"sum_hessian":[2.4570437E3,2.0053278E2,2.2565107E3,2.138609E3,1.1790192E2,2.0828745E3,5.5734337E1,4.837924E2,1.5990822E3],"tree_param":{"num_deleted":"0","num_feature":"8","num_nodes":"9","size_leaf_vector":"1"}},{"base_weights":[-2.0567942E-3,-1.0004995E-1,8.0382116E-2,3.3946633E-2,9.968367E-2,-7.553801E-2,2.695541E-1,-3.5969298E-3,-9.6317284E-2,4.722933E-2,5.537097E-3],"categories":[],"categories_nodes":[],"categories_segments":[],"categories_sizes":[],"default_left":[0,0,0,0,0,0,0,0,0,0,0],"id":47,"left_children":[1,-1,3,5,-1,7,9,-1,-1,-1,-1],"loss_changes":[1.9931677E2,0E0,9.515781E1,5.496504E1,0E0,5.106958E1,2.9327702E1,0E0,0E0,0E0,0E0],"parents":[2147483647,0,0,2,2,3,3,5,5,6,6],"right_children":[2,-1,4,6,-1,8,10,-1,-1,-1,-1],"split_conditions":[6.7E0,-1.0004995E-1,1E2,5E1,9.968367E-2,1.5E1,1.15E1,-3.5969298E-3,-9.6317284E-2,4.722933E-2,5.537097E-3],"split_indices":[5,0,5,7,0,4,4,0,0,0,0],"split_type":[0,0,0,0,0,0,0,0,0,0,0],"sum_hessian":[2.4195452E3,1.8368948E2,2.2358555E3,2.1290183E3,1.0683734E2,1.4540253E3,6.749929E2,1.3929705E3,6.105489E1,3.4614117E2,3.2885175E2],"tree_param":{"num_deleted":"0","num_feature":"8","num_nodes":"11","size_leaf_vector":"1"}},{"base_weights":[-1.8619323E-3,-1.0813704E0,6.9148764E-2,-9.963888E-2,-1.6259402E-1,2.4715645E-2,9.55729E-1,1.5953779E-1,-1.7214592E-1,4.5233908E-1,9.9767625E-2,-4.8027593E-3,4.264396E-2,5.061122E-5,-7.7152096E-2,-5.9939403E-2,8.063444E-2],"categories":[],"categories_nodes":[],"categories_segments":[],"categories_sizes":[],"default_left":[0,0,0,0,0,0,0,0,0,0,0,0,0,0,0,0,0],"id":48,"left_children":[1,3,5,-1,-1,7,9,11,13,15,-1,-1,-1,-1,-1,-1,-1],"loss_changes":[1.8281679E2,5.19191E0,8.8127556E1,0E0,0E0,5.6611862E1,1.8032303E0,7.01492E1,8.9727356E1,4.2221975E0,0E0,0E0,0E0,0E0,0E0,0E0,0E0],"parents":[2147483647,0,0,1,1,2,2,5,5,6,6,7,7,8,8,9,9],"right_children":[2,4,6,-1,-1,8,10,12,14,16,-1,-1,-1,-1,-1,-1,-1],"split_conditions":[5E0,6.7E0,7.5E1,-9.963888E-2,-1.6259402E-1,5.7E0,1E2,8E-1,1.15E1,1.1E1,9.9767625E-2,-4.8027593E-3,4.264396E-2,5.061122E-5,-7.7152096E-2,-5.9939403E-2,8.063444E-2],"split_indices":[6,5,7,0,0,0,7,0,4,3,0,0,0,0,0,0,0],"split_type":[0,0,0,0,0,0,0,0,0,0,0,0,0,0,0,0,0],"sum_hessian":[2.382903E3,1.4619595E2,2.236707E3,1.2890903E2,1.7286928E1,2.130938E3,1.0576924E2,1.264871E3,8.660669E2,9.042139E0,9.6727104E1,7.119886E2,5.528824E2,6.7316003E2,1.9290689E2,2.1025078E0,6.939631E0],"tree_param":{"num_deleted":"0","num_feature":"8","num_nodes":"17","size_leaf_vector":"1"}},{"base_weights":[-1.5851429E-3,-1.0006215E-1,6.9309644E-2,2.8398162E-2,9.946534E-2,-1.4729466E-1,4.2650748E-2,-2.5550732E-2,1.1431661E-2],"categories":[],"categories_nodes":[],"categories_segments":[],"categories_sizes":[],"default_left":[0,0,0,0,0,0,0,0,0],"id":49,"left_children":[1,-1,3,5,-1,-1,7,-1,-1],"loss_changes":[1.667903E2,0E0,8.32158E1,4.5144737E1,0E0,0E0,4.4644733E1,0E0,0E0],"parents":[2147483647,0,0,2,2,3,3,6,6],"right_children":[2,-1,4,6,-1,-1,8,-1,-1],"split_conditions":[5.3E0,-1.0006215E-1,1E2,5E0,9.946534E-2,-1.4729466E-1,2.22E1,-2.5550732E-2,1.1431661E-2],"split_indices":[7,0,5,6,0,0,5,0,0],"split_type":[0,0,0,0,0,0,0,0,0],"sum_hessian":[2.3529358E3,1.5503911E2,2.1978967E3,2.1058242E3,9.2072426E1,1.884059E1,2.0869836E3,4.0392642E2,1.6830573E3],"tree_param":{"num_deleted":"0","num_feature":"8","num_nodes":"9","size_leaf_vector":"1"}},{"base_weights":[-1.6192899E-3,-9.9784374E-2,6.343656E-2,2.5972795E-2,9.952181E-2,2.9656208E-1,-5.320068E-2,6.8784067E-3,4.6975743E-2,4.904681E-3,-4.83801E-2],"categories":[],"categories_nodes":[],"categories_segments":[],"categories_sizes":[],"default_left":[0,0,0,0,0,0,0,0,0,0,0],"id":50,"left_children":[1,-1,3,5,-1,7,9,-1,-1,-1,-1],"loss_changes":[1.5044458E2,0E0,7.60401E1,4.4915977E1,0E0,1.8689651E1,7.1448524E1,0E0,0E0,0E0,0E0],"parents":[2147483647,0,0,2,2,3,3,5,5,6,6],"right_children":[2,-1,4,6,-1,8,10,-1,-1,-1,-1],"split_conditions":[6.7E0,-9.9784374E-2,1E2,8.8E0,9.952181E-2,3.33E1,1E1,6.8784067E-3,4.6975743E-2,4.904681E-3,-4.83801E-2],"split_indices":[5,0,7,4,0,5,0,0,0,0,0],"split_type":[0,0,0,0,0,0,0,0,0,0,0],"sum_hessian":[2.3193325E3,1.4129477E2,2.1780378E3,2.0948394E3,8.319849E1,4.7357336E2,1.621266E3,2.0515749E2,2.684159E2,1.3108794E3,3.1038663E2],"tree_param":{"num_deleted":"0","num_feature":"8","num_nodes":"11","size_leaf_vector":"1"}},{"base_weights":[-1.4060163E-3,-9.987446E-2,5.8936596E-2,2.2947345E-2,9.923044E-2,-1.4169548E-1,3.5900906E-2,8.333385E-3,-3.5210945E-2],"categories":[],"categories_nodes":[],"categories_segments":[],"categories_sizes":[],"default_left":[0,0,0,0,0,0,0,0,0],"id":51,"left_children":[1,-1,3,5,-1,-1,7,-1,-1],"loss_changes":[1.379413E2,0E0,7.257871E1,3.8885994E1,0E0,0E0,3.8025665E1,0E0,0E0],"parents":[2147483647,0,0,2,2,3,3,6,6],"right_children":[2,-1,4,6,-1,-1,8,-1,-1],"split_conditions":[5.3E0,-9.987446E-2,1E2,5E0,9.923044E-2,-1.4169548E-1,1.7E1,8.333385E-3,-3.5210945E-2],"split_indices":[7,0,5,6,0,0,0,0,0],"split_type":[0,0,0,0,0,0,0,0,0],"sum_hessian":[2.2900906E3,1.2976656E2,2.160324E3,2.0811042E3,7.921966E1,1.758861E1,2.0635156E3,1.8394362E3,2.2407957E2],"tree_param":{"num_deleted":"0","num_feature":"8","num_nodes":"9","size_leaf_vector":"1"}},{"base_weights":[-1.4405614E-3,-9.9588595E-2,5.374746E-2,2.0715224E-2,9.927003E-2,1.4469442E-3,9.8105066E-2,1.7164744E-3,-1.2161624E-1],"categories":[],"categories_nodes":[],"categories_segments":[],"categories_sizes":[],"default_left":[0,0,0,0,0,0,0,0,0],"id":52,"left_children":[1,-1,3,5,-1,7,-1,-1,-1],"loss_changes":[1.24308495E2,0E0,6.653818E1,3.837702E1,0E0,3.8952953E1,0E0,0E0,0E0],"parents":[2147483647,0,0,2,2,3,3,5,5],"right_children":[2,-1,4,6,-1,8,-1,-1,-1],"split_conditions":[6.7E0,-9.9588595E-2,1E2,1E2,9.927003E-2,1.8E1,9.8105066E-2,1.7164744E-3,-1.2161624E-1],"split_indices":[5,0,7,5,0,4,0,0,0],"split_type":[0,0,0,0,0,0,0,0,0],"sum_hessian":[2.2630605E3,1.1809183E2,2.1449685E3,2.0730608E3,7.1907936E1,2.0332665E3,3.9794186E1,2.0083274E3,2.493907E1],"tree_param":{"num_deleted":"0","num_feature":"8","num_nodes":"9","size_leaf_vector":"1"}},{"base_weights":[-1.2873566E-3,-9.967231E-2,4.9963716E-2,1.9829404E-2,9.906963E-2,-8.082465E-2,2.02667E-1,-4.582896E-3,-7.7814616E-2,3.9234187E-2,-1.3620924E-3],"categories":[],"categories_nodes":[],"categories_segments":[],"categories_sizes":[],"default_left":[0,0,0,0,0,0,0,0,0,0,0],"id":53,"left_children":[1,-1,3,5,-1,7,9,-1,-1,-1,-1],"loss_changes":[1.1443256E2,0E0,6.045346E1,3.8074944E1,0E0,3.25301E1,3.0139378E1,0E0,0E0,0E0,0E0],"parents":[2147483647,0,0,2,2,3,3,5,5,6,6],"right_children":[2,-1,4,6,-1,8,10,-1,-1,-1,-1],"split_conditions":[5.3E0,-9.967231E-2,1E2,5E1,9.906963E-2,1.5E1,1.15E1,-4.582896E-3,-7.7814616E-2,3.9234187E-2,-1.3620924E-3],"split_indices":[7,0,7,5,0,4,4,0,0,0,0],"split_type":[0,0,0,0,0,0,0,0,0,0,0],"sum_hessian":[2.2410457E3,1.0882961E2,2.132216E3,2.0670244E3,6.519153E1,1.3334847E3,7.335397E2,1.2707755E3,6.2709263E1,3.903799E2,3.4315976E2],"tree_param":{"num_deleted":"0","num_feature":"8","num_nodes":"11","size_leaf_vector":"1"}},{"base_weights":[-1.1322219E-3,-1.0739578E0,4.2699363E-2,-9.883642E-2,-1.3917446E-1,1.4143572E-2,9.8780476E-2,-2.4052177E-1,9.436801E-2,-2.0972049E-2,-1.6557196E-1,1.5640479E-2,-3.1546302E-2],"categories":[],"categories_nodes":[],"categories_segments":[],"categories_sizes":[],"default_left":[0,0,0,0,0,0,0,0,0,0,0,0,0],"id":54,"left_children":[1,3,5,-1,-1,7,-1,9,11,-1,-1,-1,-1],"loss_changes":[1.0440278E2,9.94957E-1,5.7554474E1,0E0,0E0,4.234524E1,0E0,2.129652E1,4.011895E1,0E0,0E0,0E0,0E0],"parents":[2147483647,0,0,1,1,2,2,5,5,7,7,8,8],"right_children":[2,4,6,-1,-1,8,-1,10,12,-1,-1,-1,-1],"split_conditions":[5E0,6.7E0,1E2,-9.883642E-2,-1.3917446E-1,2.22E1,9.8780476E-2,3.3E1,1.44E1,-2.0972049E-2,-1.6557196E-1,1.5640479E-2,-3.1546302E-2],"split_indices":[6,5,5,0,0,7,0,0,4,0,0,0,0],"split_type":[0,0,0,0,0,0,0,0,0,0,0,0,0],"sum_hessian":[2.2182434E3,8.614909E1,2.1320945E3,7.1107056E1,1.5042031E1,2.070549E3,6.1545425E1,4.955312E2,1.5750178E3,4.8609958E2,9.4316E0,1.3684862E3,2.0653156E2],"tree_param":{"num_deleted":"0","num_feature":"8","num_nodes":"13","size_leaf_vector":"1"}},{"base_weights":[-1.1241009E-3,-9.92951E-2,4.2570647E-2,1.6091125E-2,9.87842E-2,2.655179E-1,-5.4615572E-2,4.4882083E-3,4.1078597E-2,8.7026E-3,-3.0070802E-2],"categories":[],"categories_nodes":[],"categories_segments":[],"categories_sizes":[],"default_left":[0,0,0,0,0,0,0,0,0,0,0],"id":55,"left_children":[1,-1,3,5,-1,7,9,-1,-1,-1,-1],"loss_changes":[9.535621E1,0E0,5.2735294E1,3.6187634E1,0E0,1.4506748E1,5.5758713E1,0E0,0E0,0E0,0E0],"parents":[2147483647,0,0,2,2,3,3,5,5,6,6],"right_children":[2,-1,4,6,-1,8,10,-1,-1,-1,-1],"split_conditions":[6.7E0,-9.92951E-2,1E2,8.8E0,9.87842E-2,5.7E2,5.7E0,4.4882083E-3,4.1078597E-2,8.7026E-3,-3.0070802E-2],"split_indices":[5,0,7,4,0,1,0,0,0,0,0],"split_type":[0,0,0,0,0,0,0,0,0,0,0],"sum_hessian":[2.1983345E3,9.184397E1,2.1064905E3,2.0500796E3,5.6411064E1,4.5218497E2,1.5978945E3,1.8004233E2,2.7214264E2,1.0145843E3,5.8331024E2],"tree_param":{"num_deleted":"0","num_feature":"8","num_nodes":"11","size_leaf_vector":"1"}},{"base_weights":[-9.2861627E-4,-9.93633E-2,3.964443E-2,1.4463646E-2,9.8499686E-2,-6.682503E-2,1.9935532E-1,-3.3951846E-3,-6.7343235E-2,2.5463054E-2,-4.0612336E-2],"categories":[],"categories_nodes":[],"categories_segments":[],"categories_sizes":[],"default_left":[0,0,0,0,0,0,0,0,0,0,0],"id":56,"left_children":[1,-1,3,5,-1,7,9,-1,-1,-1,-1],"loss_changes":[8.7841705E1,0E0,4.98643E1,3.0703363E1,0E0,2.8276073E1,2.0982338E1,0E0,0E0,0E0,0E0],"parents":[2147483647,0,0,2,2,3,3,5,5,6,6],"right_children":[2,-1,4,6,-1,8,10,-1,-1,-1,-1],"split_conditions":[5.3E0,-9.93633E-2,1E2,5E1,9.8499686E-2,1.46E1,1.64E1,-3.3951846E-3,-6.7343235E-2,2.5463054E-2,-4.0612336E-2],"split_indices":[7,0,5,7,0,4,4,0,0,0,0],"split_type":[0,0,0,0,0,0,0,0,0,0,0],"sum_hessian":[2.1789595E3,8.463746E1,2.094322E3,2.0409733E3,5.3348877E1,1.418125E3,6.2284814E2,1.3462264E3,7.189857E1,5.7127496E2,5.1573235E1],"tree_param":{"num_deleted":"0","num_feature":"8","num_nodes":"11","size_leaf_vector":"1"}},{"base_weights":[-8.356114E-4,-1.0762874E0,3.4163702E-2,-9.8314814E-2,-1.3369207E-1,1.1138929E-2,9.8452054E-2,5.4863233E-2,-3.349342E-1,3.3177506E-2,-9.050892E-4,-1.9810317E-2,-8.513548E-2],"categories":[],"categories_nodes":[],"categories_segments":[],"categories_sizes":[],"default_left":[0,0,0,0,0,0,0,0,0,0,0,0,0],"id":57,"left_children":[1,3,5,-1,-1,7,-1,9,11,-1,-1,-1,-1],"loss_changes":[8.1411125E1,3.404541E-1,4.5825554E1,0E0,0E0,3.0981066E1,0E0,3.2170746E1,1.6060137E1,0E0,0E0,0E0,0E0],"parents":[2147483647,0,0,1,1,2,2,5,5,7,7,8,8],"right_children":[2,4,6,-1,-1,8,-1,10,12,-1,-1,-1,-1],"split_conditions":[5E0,6.7E0,1E2,-9.8314814E-2,-1.3369207E-1,1.7E1,9.8452054E-2,8.333333E0,1.1E1,3.3177506E-2,-9.050892E-4,-1.9810317E-2,-8.513548E-2],"split_indices":[6,5,7,0,0,0,0,4,4,0,0,0,0],"split_type":[0,0,0,0,0,0,0,0,0,0,0,0,0],"sum_hessian":[2.1609075E3,6.716999E1,2.0937375E3,5.300162E1,1.4168371E1,2.0451992E3,4.853835E1,1.8165325E3,2.2866673E2,3.3986325E2,1.4766692E3,1.8186366E2,4.6803062E1],"tree_param":{"num_deleted":"0","num_feature":"8","num_nodes":"13","size_leaf_vector":"1"}},{"base_weights":[-7.9236855E-4,-9.897611E-2,3.4201007E-2,1.2033104E-2,9.819649E-2,-1.2960634E-1,1.1292891E-1,-6.752727E-3,-5.0493743E-2,2.6756704E-2,-7.2498196E-3],"categories":[],"categories_nodes":[],"categories_segments":[],"categories_sizes":[],"default_left":[0,0,0,0,0,0,0,0,0,0,0],"id":58,"left_children":[1,-1,3,5,-1,7,9,-1,-1,-1,-1],"loss_changes":[7.434038E1,0E0,4.3577938E1,2.9000933E1,0E0,1.96372E1,3.3999954E1,0E0,0E0,0E0,0E0],"parents":[2147483647,0,0,2,2,3,3,5,5,6,6],"right_children":[2,-1,4,6,-1,8,10,-1,-1,-1,-1],"split_conditions":[6.7E0,-9.897611E-2,1E2,2.86E1,9.819649E-2,6E2,1.15E1,-6.752727E-3,-5.0493743E-2,2.6756704E-2,-7.2498196E-3],"split_indices":[5,0,5,7,0,1,4,0,0,0,0],"split_type":[0,0,0,0,0,0,0,0,0,0,0],"sum_hessian":[2.1461313E3,7.24105E1,2.0737207E3,2.0273152E3,4.6405575E1,8.4325433E2,1.1840609E3,7.245886E2,1.18665695E2,6.4539044E2,5.386704E2],"tree_param":{"num_deleted":"0","num_feature":"8","num_nodes":"11","size_leaf_vector":"1"}},{"base_weights":[-6.5986277E-4,-9.902386E-2,3.180208E-2,1.2165476E-2,1.0443808E-1,-2.1942852E-3,9.7193904E-2,9.898654E-4,-1.18809275E-1],"categories":[],"categories_nodes":[],"categories_segments":[],"categories_sizes":[],"default_left":[0,0,0,0,0,0,0,0,0],"id":59,"left_children":[1,-1,3,5,-1,7,-1,-1,-1],"loss_changes":[6.848815E1,0E0,4.1033413E1,2.7925531E1,0E0,2.8653479E1,0E0,0E0,0E0],"parents":[2147483647,0,0,2,2,3,3,5,5],"right_children":[2,-1,4,6,-1,8,-1,-1,-1],"split_conditions":[5.3E0,-9.902386E-2,1E2,1E2,1.0443808E-1,1.825E1,9.7193904E-2,9.898654E-4,-1.18809275E-1],"split_indices":[7,0,6,7,0,4,0,0,0],"split_type":[0,0,0,0,0,0,0,0,0],"sum_hessian":[2.1300361E3,6.671685E1,2.0633193E3,2.02506E3,3.8259308E1,1.9961915E3,2.8868532E1,1.9770228E3,1.9168604E1],"tree_param":{"num_deleted":"0","num_feature":"8","num_nodes":"9","size_leaf_vector":"1"}},{"base_weights":[-5.717413E-4,-1.0769087E-1,2.7461167E-2,8.060177E-3,9.7853415E-2,1.1081426E-1,-1.2728512E-1,-9.431134E-3,3.9452467E-2,-5.7711634E-3,-9.242742E-2],"categories":[],"categories_nodes":[],"categories_segments":[],"categories_sizes":[],"default_left":[0,0,0,0,0,0,0,0,0,0,0],"id":60,"left_children":[1,-1,3,5,-1,7,9,-1,-1,-1,-1],"loss_changes":[6.395714E1,0E0,3.8111706E1,2.8184893E1,0E0,6.707788E1,4.8444767E1,0E0,0E0,0E0,0E0],"parents":[2147483647,0,0,2,2,3,3,5,5,6,6],"right_children":[2,-1,4,6,-1,8,10,-1,-1,-1,-1],"split_conditions":[5E0,-1.0769087E-1,1E2,5.5E0,9.7853415E-2,8E-1,1.35E1,-9.431134E-3,3.9452467E-2,-5.7711634E-3,-9.242742E-2],"split_indices":[6,0,5,0,0,0,4,0,0,0,0],"split_type":[0,0,0,0,0,0,0,0,0,0,0],"sum_hessian":[2.1177112E3,5.2805435E1,2.0649058E3,2.0246141E3,4.029174E1,1.1509755E3,8.736387E2,6.6839E2,4.8258542E2,8.044834E2,6.9155304E1],"tree_param":{"num_deleted":"0","num_feature":"8","num_nodes":"11","size_leaf_vector":"1"}},{"base_weights":[-3.854818E-4,-9.859159E-2,2.7560042E-2,1.01265665E-2,1.0379832E-1,-2.7894594E-3,9.67656E-2,2.1312708E-2,-6.1489246E-3],"categories":[],"categories_nodes":[],"categories_segments":[],"categories_sizes":[],"default_left":[0,0,0,0,0,0,0,0,0],"id":61,"left_children":[1,-1,3,5,-1,7,-1,-1,-1],"loss_changes":[5.8031807E1,0E0,3.608312E1,2.4926413E1,0E0,2.522775E1,0E0,0E0,0E0],"parents":[2147483647,0,0,2,2,3,3,5,5],"right_children":[2,-1,4,6,-1,8,-1,-1,-1],"split_conditions":[6.7E0,-9.859159E-2,1E2,1E2,1.0379832E-1,8.8E0,9.67656E-2,2.1312708E-2,-6.1489246E-3],"split_indices":[5,0,6,7,0,4,0,0,0],"split_type":[0,0,0,0,0,0,0,0,0],"sum_hessian":[2.105107E3,5.7100864E1,2.048006E3,2.0142628E3,3.374334E1,1.9884381E3,2.582477E1,4.2447025E2,1.5639678E3],"tree_param":{"num_deleted":"0","num_feature":"8","num_nodes":"9","size_leaf_vector":"1"}},{"base_weights":[-2.4627225E-4,-1.0746397E-1,2.3732327E-2,6.697872E-3,9.747595E-2,-1.9223903E-1,7.0807256E-2,1.07148E-2,-3.165005E-2,1.2066026E-2,-2.3548065E-2],"categories":[],"categories_nodes":[],"categories_segments":[],"categories_sizes":[],"default_left":[0,0,0,0,0,0,0,0,0,0,0],"id":62,"left_children":[1,-1,3,5,-1,7,9,-1,-1,-1,-1],"loss_changes":[5.3991764E1,0E0,3.3204136E1,2.5711678E1,0E0,1.8313246E1,2.3308037E1,0E0,0E0,0E0,0E0],"parents":[2147483647,0,0,2,2,3,3,5,5,6,6],"right_children":[2,-1,4,6,-1,8,10,-1,-1,-1,-1],"split_conditions":[5E0,-1.0746397E-1,1E2,2.22E1,9.747595E-2,4E0,1.44E1,1.07148E-2,-3.165005E-2,1.2066026E-2,-2.3548065E-2],"split_indices":[6,0,5,7,0,2,4,0,0,0,0],"split_type":[0,0,0,0,0,0,0,0,0,0,0],"sum_hessian":[2.0937644E3,4.4752487E1,2.049012E3,2.0139459E3,3.506603E1,4.9034985E2,1.5235961E3,1.4386623E2,3.4648364E2,1.3108427E3,2.1275346E2],"tree_param":{"num_deleted":"0","num_feature":"8","num_nodes":"11","size_leaf_vector":"1"}},{"base_weights":[-1.780579E-4,-9.850861E-2,2.4186322E-2,8.716005E-3,1.0311707E-1,-6.899039E-2,1.563415E-1,-3.1707499E-3,-5.6434136E-2,1.8171813E-2,-8.64896E-2],"categories":[],"categories_nodes":[],"categories_segments":[],"categories_sizes":[],"default_left":[0,0,0,0,0,0,0,0,0,0,0],"id":63,"left_children":[1,-1,3,5,-1,7,9,-1,-1,-1,-1],"loss_changes":[5.0018066E1,0E0,3.1678411E1,2.300296E1,0E0,2.424556E1,1.807762E1,0E0,0E0,0E0,0E0],"parents":[2147483647,0,0,2,2,3,3,5,5,6,6],"right_children":[2,-1,4,6,-1,8,10,-1,-1,-1,-1],"split_conditions":[5.3E0,-9.850861E-2,1E2,5E1,1.0311707E-1,2.3E1,1.825E1,-3.1707499E-3,-5.6434136E-2,1.8171813E-2,-8.64896E-2],"split_indices":[7,0,6,5,0,0,4,0,0,0,0],"split_type":[0,0,0,0,0,0,0,0,0,0,0],"sum_hessian":[2.082382E3,4.931793E1,2.0330641E3,2.003296E3,2.9768015E1,1.3128022E3,6.9049384E2,1.2218993E3,9.090298E1,6.7455396E2,1.5939861E1],"tree_param":{"num_deleted":"0","num_feature":"8","num_nodes":"11","size_leaf_vector":"1"}},{"base_weights":[-1.6739381E-4,-1.0708886E-1,2.0436367E-2,5.2327146E-3,9.7233765E-2,6.113393E-2,-1.9446126E-1,-8.692384E-3,1.7134987E-2,7.908344E-3,-3.424087E-2],"categories":[],"categories_nodes":[],"categories_segments":[],"categories_sizes":[],"default_left":[0,0,0,0,0,0,0,0,0,0,0],"id":64,"left_children":[1,-1,3,5,-1,7,9,-1,-1,-1,-1],"loss_changes":[4.5740173E1,0E0,2.9434977E1,2.2374445E1,0E0,2.5567448E1,1.776802E1,0E0,0E0,0E0,0E0],"parents":[2147483647,0,0,2,2,3,3,5,5,6,6],"right_children":[2,-1,4,6,-1,8,10,-1,-1,-1,-1],"split_conditions":[5E0,-1.0708886E-1,1E2,1.1E1,9.7233765E-2,8E-1,8.75E0,-8.692384E-3,1.7134987E-2,7.908344E-3,-3.424087E-2],"split_indices":[6,0,7,0,0,0,4,0,0,0,0],"split_type":[0,0,0,0,0,0,0,0,0,0,0],"sum_hessian":[2.0713691E3,3.814419E1,2.0332249E3,2.0022506E3,3.0974207E1,1.5648806E3,4.3737006E2,6.678887E2,8.9699194E2,1.5368413E2,2.8368594E2],"tree_param":{"num_deleted":"0","num_feature":"8","num_nodes":"11","size_leaf_vector":"1"}},{"base_weights":[-9.525574E-5,-9.800414E-2,2.1033064E-2,7.23547E-3,1.0233287E-1,1.3209428E-1,-7.955427E-2,-1.2271285E-1,1.6144967E-2,-6.064891E-3,-2.4619256E-1],"categories":[],"categories_nodes":[],"categories_segments":[],"categories_sizes":[],"default_left":[0,0,0,0,0,0,0,0,0,0,0],"id":65,"left_children":[1,-1,3,5,-1,7,9,-1,-1,-1,-1],"loss_changes":[4.2731518E1,0E0,2.7931997E1,2.1617147E1,0E0,3.283666E1,5.285709E1,0E0,0E0,0E0,0E0],"parents":[2147483647,0,0,2,2,3,3,5,5,6,6],"right_children":[2,-1,4,6,-1,8,10,-1,-1,-1,-1],"split_conditions":[6.7E0,-9.800414E-2,1E2,5E0,1.0233287E-1,1.25E1,1.8E1,-1.2271285E-1,1.6144967E-2,-6.064891E-3,-2.4619256E-1],"split_indices":[5,0,6,2,0,7,4,0,0,0,0],"split_type":[0,0,0,0,0,0,0,0,0,0,0],"sum_hessian":[2.0618687E3,4.2559177E1,2.0193096E3,1.9928827E3,2.6426788E1,8.1699817E2,1.1758845E3,1.6409248E1,8.005889E2,1.1676442E3,8.240411E0],"tree_param":{"num_deleted":"0","num_feature":"8","num_nodes":"11","size_leaf_vector":"1"}},{"base_weights":[-2.0088642E-4,-9.7951025E-2,1.9212067E-2,4.988573E-3,9.686085E-2,9.0203494E-2,-1.05966836E-1,-9.041893E-3,3.558852E-2,1.0630558E-3,-4.56036E-2],"categories":[],"categories_nodes":[],"categories_segments":[],"categories_sizes":[],"default_left":[0,0,0,0,0,0,0,0,0,0,0],"id":66,"left_children":[1,-1,3,5,-1,7,9,-1,-1,-1,-1],"loss_changes":[3.905378E1,0E0,2.719604E1,1.8783472E1,0E0,5.3951946E1,3.5229538E1,0E0,0E0,0E0,0E0],"parents":[2147483647,0,0,2,2,3,3,5,5,6,6],"right_children":[2,-1,4,6,-1,8,10,-1,-1,-1,-1],"split_conditions":[5.3E0,-9.7951025E-2,1E2,5.5E0,9.686085E-2,8E-1,1.15E1,-9.041893E-3,3.558852E-2,1.0630558E-3,-4.56036E-2],"split_indices":[7,0,5,0,0,0,4,0,0,0,0],"split_type":[0,0,0,0,0,0,0,0,0,0,0],"sum_hessian":[2.052252E3,3.8929916E1,2.0133221E3,1.984595E3,2.8727188E1,1.1226075E3,8.619874E2,6.686731E2,4.5393448E2,6.473458E2,2.1464157E2],"tree_param":{"num_deleted":"0","num_feature":"8","num_nodes":"11","size_leaf_vector":"1"}},{"base_weights":[-5.114049E-5,-1.0694416E-1,1.6719235E-2,3.4703945E-3,9.672651E-2,-2.0086266E-1,5.4985676E-2,1.4939651E-2,-3.4849375E-2,2.966789E-2,1.989111E-4],"categories":[],"categories_nodes":[],"categories_segments":[],"categories_sizes":[],"default_left":[0,0,0,0,0,0,0,0,0,0,0],"id":67,"left_children":[1,-1,3,5,-1,7,9,-1,-1,-1,-1],"loss_changes":[3.6654827E1,0E0,2.5338932E1,2.0912556E1,0E0,2.0737146E1,2.0322336E1,0E0,0E0,0E0,0E0],"parents":[2147483647,0,0,2,2,3,3,5,5,6,6],"right_children":[2,-1,4,6,-1,8,10,-1,-1,-1,-1],"split_conditions":[5E0,-1.0694416E-1,1E2,2.22E1,9.672651E-2,4E0,8.333333E0,1.4939651E-2,-3.4849375E-2,2.966789E-2,1.989111E-4],"split_indices":[6,0,7,5,0,2,4,0,0,0,0],"split_type":[0,0,0,0,0,0,0,0,0,0,0],"sum_hessian":[2.0418676E3,3.0557367E1,2.0113102E3,1.9846515E3,2.6658697E1,3.9902756E2,1.585624E3,1.1831343E2,2.807141E2,2.8432928E2,1.3012947E3],"tree_param":{"num_deleted":"0","num_feature":"8","num_nodes":"11","size_leaf_vector":"1"}},{"base_weights":[3.1772754E-5,-9.742563E-2,1.7096065E-2,5.04239E-3,1.01575695E-1,-4.6529584E-3,9.525088E-2,4.718549E-3,-1.7297987E-2],"categories":[],"categories_nodes":[],"categories_segments":[],"categories_sizes":[],"default_left":[0,0,0,0,0,0,0,0,0],"id":68,"left_children":[1,-1,3,5,-1,7,-1,-1,-1],"loss_changes":[3.3834137E1,0E0,2.4070412E1,1.8166946E1,0E0,1.7094675E1,0E0,0E0,0E0],"parents":[2147483647,0,0,2,2,3,3,5,5],"right_children":[2,-1,4,6,-1,8,-1,-1,-1],"split_conditions":[6.7E0,-9.742563E-2,1E2,1E2,1.01575695E-1,1.3E1,9.525088E-2,4.718549E-3,-1.7297987E-2],"split_indices":[5,0,6,5,0,4,0,0,0],"split_type":[0,0,0,0,0,0,0,0,0],"sum_hessian":[2.0330686E3,3.402996E1,1.9990387E3,1.9761914E3,2.284726E1,1.957159E3,1.9032364E1,1.4968916E3,4.6026746E2],"tree_param":{"num_deleted":"0","num_feature":"8","num_nodes":"9","size_leaf_vector":"1"}},{"base_weights":[1.1230119E-4,-9.7369224E-2,1.5969453E-2,4.173986E-3,9.6244246E-2,-4.492608E-3,1.0084027E-1,1.0595794E-2,-7.975745E-3],"categories":[],"categories_nodes":[],"categories_segments":[],"categories_sizes":[],"default_left":[0,0,0,0,0,0,0,0,0],"id":69,"left_children":[1,-1,3,5,-1,7,-1,-1,-1],"loss_changes":[3.1316885E1,0E0,2.227461E1,1.7167343E1,0E0,1.6269796E1,0E0,0E0,0E0],"parents":[2147483647,0,0,2,2,3,3,5,5],"right_children":[2,-1,4,6,-1,8,-1,-1,-1],"split_conditions":[5.3E0,-9.7369224E-2,1E2,1E2,9.6244246E-2,5E0,1.0084027E-1,1.0595794E-2,-7.975745E-3],"split_indices":[7,0,7,6,0,2,0,0,0],"split_type":[0,0,0,0,0,0,0,0,0],"sum_hessian":[2.0260565E3,3.1495258E1,1.9945613E3,1.9710021E3,2.3559301E1,1.9551246E3,1.5877394E1,7.921878E2,1.1629369E3],"tree_param":{"num_deleted":"0","num_feature":"8","num_nodes":"9","size_leaf_vector":"1"}},{"base_weights":[1.938441E-4,-1.0662993E-1,1.3992821E-2,-5.4503914E-2,1.7798196E-1,-1.1304044E-1,1.4416511E-1,1.468274E-1,9.58237E-2,-2.9940164E-2,-4.150344E-3,1.918286E-2,-5.6376524E-2,1.6339766E-2,-1.0188904E-1],"categories":[],"categories_nodes":[],"categories_segments":[],"categories_sizes":[],"default_left":[0,0,0,0,0,0,0,0,0,0,0,0,0,0,0],"id":70,"left_children":[1,-1,3,5,7,9,11,13,-1,-1,-1,-1,-1,-1,-1],"loss_changes":[2.975804E1,0E0,2.243293E1,1.6400482E1,1.4161993E1,1.450292E1,1.094207E1,1.1118247E1,0E0,0E0,0E0,0E0,0E0,0E0,0E0],"parents":[2147483647,0,0,2,2,3,3,4,4,5,5,6,6,7,7],"right_children":[2,-1,4,6,8,10,12,14,-1,-1,-1,-1,-1,-1,-1],"split_conditions":[5E0,-1.0662993E-1,5E1,4.29E1,1E2,8E-1,1.46E1,1.5E1,9.58237E-2,-2.9940164E-2,-4.150344E-3,1.918286E-2,-5.6376524E-2,1.6339766E-2,-1.0188904E-1],"split_indices":[6,0,7,5,7,0,4,2,0,0,0,0,0,0,0],"split_type":[0,0,0,0,0,0,0,0,0,0,0,0,0,0,0],"sum_hessian":[2.0200709E3,2.4828848E1,1.9952421E3,1.4078597E3,5.8738226E2,1.0877827E3,3.2007703E2,5.659719E2,2.1410336E1,3.0085068E2,7.8693207E2,3.0056934E2,1.9507692E1,5.588874E2,7.0845494E0],"tree_param":{"num_deleted":"0","num_feature":"8","num_nodes":"15","size_leaf_vector":"1"}},{"base_weights":[1.9763874E-4,-9.67724E-2,1.4143789E-2,3.3258786E-3,9.574471E-2,8.179132E-2,-1.0268469E-1,-7.346619E-3,3.0545816E-2,9.850203E-4,-4.3889914E-2],"categories":[],"categories_nodes":[],"categories_segments":[],"categories_sizes":[],"default_left":[0,0,0,0,0,0,0,0,0,0,0],"id":71,"left_children":[1,-1,3,5,-1,7,9,-1,-1,-1,-1],"loss_changes":[2.7197906E1,0E0,2.0265228E1,1.6351042E1,0E0,3.924828E1,3.1639277E1,0E0,0E0,0E0,0E0],"parents":[2147483647,0,0,2,2,3,3,5,5,6,6],"right_children":[2,-1,4,6,-1,8,10,-1,-1,-1,-1],"split_conditions":[6.7E0,-9.67724E-2,1E2,5.7E0,9.574471E-2,8E-1,1.15E1,-7.346619E-3,3.0545816E-2,9.850203E-4,-4.3889914E-2],"split_indices":[5,0,5,0,0,0,4,0,0,0,0],"split_type":[0,0,0,0,0,0,0,0,0,0,0],"sum_hessian":[2.0128275E3,2.7618196E1,1.9852094E3,1.963693E3,2.1516333E1,1.1285826E3,8.3511035E2,6.665624E2,4.620203E2,6.2641327E2,2.086971E2],"tree_param":{"num_deleted":"0","num_feature":"8","num_nodes":"11","size_leaf_vector":"1"}},{"base_weights":[2.8298146E-4,-1.0572227E-1,1.2267845E-2,2.6584056E-3,9.981405E-2,3.4303647E-2,-2.353755E-1,2.5969818E-2,-1.364196E-3,-1.6575204E-2,-9.842457E-2],"categories":[],"categories_nodes":[],"categories_segments":[],"categories_sizes":[],"default_left":[0,0,0,0,0,0,0,0,0,0,0],"id":72,"left_children":[1,-1,3,5,-1,7,9,-1,-1,-1,-1],"loss_changes":[2.5430151E1,0E0,1.8792791E1,1.4815853E1,0E0,1.8764057E1,1.18707285E1,0E0,0E0,0E0,0E0],"parents":[2147483647,0,0,2,2,3,3,5,5,6,6],"right_children":[2,-1,4,6,-1,8,10,-1,-1,-1,-1],"split_conditions":[5E0,-1.0572227E-1,1E2,1.7E1,9.981405E-2,8.333333E0,6E2,2.5969818E-2,-1.364196E-3,-1.6575204E-2,-9.842457E-2],"split_indices":[6,0,6,0,0,4,1,0,0,0,0],"split_type":[0,0,0,0,0,0,0,0,0,0,0],"sum_hessian":[2.0044487E3,2.1484812E1,1.9829639E3,1.9648153E3,1.8148632E1,1.7350114E3,2.2980391E2,3.035574E2,1.431454E3,2.1137357E2,1.843035E1],"tree_param":{"num_deleted":"0","num_feature":"8","num_nodes":"11","size_leaf_vector":"1"}},{"base_weights":[2.6908357E-4,-9.655171E-2,1.2785151E-2,3.1224135E-3,9.519737E-2,1.3445742E-1,-5.2545846E-2,1.5126719E-2,-2.8003255E-1,-3.1092665E-3,-1.2589417E-1],"categories":[],"categories_nodes":[],"categories_segments":[],"categories_sizes":[],"default_left":[0,0,0,0,0,0,0,0,0,0,0],"id":73,"left_children":[1,-1,3,5,-1,7,9,-1,-1,-1,-1],"loss_changes":[2.4187227E1,0E0,1.7923445E1,1.4309371E1,0E0,2.9166039E1,3.553693E1,0E0,0E0,0E0,0E0],"parents":[2147483647,0,0,2,2,3,3,5,5,6,6],"right_children":[2,-1,4,6,-1,8,10,-1,-1,-1,-1],"split_conditions":[5.3E0,-9.655171E-2,1E2,1E1,9.519737E-2,3.3E1,1.64E1,1.5126719E-2,-2.8003255E-1,-3.1092665E-3,-1.2589417E-1],"split_indices":[7,0,5,3,0,0,4,0,0,0,0],"split_type":[0,0,0,0,0,0,0,0,0,0,0],"sum_hessian":[1.9989335E3,2.4599539E1,1.974334E3,1.9552212E3,1.9112751E1,5.816207E2,1.3736005E3,5.7925134E2,2.369363E0,1.3506085E3,2.2991924E1],"tree_param":{"num_deleted":"0","num_feature":"8","num_nodes":"11","size_leaf_vector":"1"}},{"base_weights":[1.1187969E-4,-9.6055426E-2,1.1703995E-2,5.55129E-4,8.03172E-1,4.0775638E-2,-1.761456E-1,8.688718E-1,-4.5370102E-2,1.633075E-2,-4.41222E-3,-3.532701E-3,-6.686234E-2,9.016296E-2,1.1948E-2],"categories":[],"categories_nodes":[],"categories_segments":[],"categories_sizes":[],"default_left":[0,0,0,0,0,0,0,0,0,0,0,0,0,0,0],"id":74,"left_children":[1,-1,3,5,7,9,11,13,-1,-1,-1,-1,-1,-1,-1],"loss_changes":[2.2218288E1,0E0,1.7394707E1,1.3830067E1,2.655367E0,1.6497074E1,2.4998907E1,5.395031E-1,0E0,0E0,0E0,0E0,0E0,0E0,0E0],"parents":[2147483647,0,0,2,2,3,3,4,4,5,5,6,6,7,7],"right_children":[2,-1,4,6,8,10,12,14,-1,-1,-1,-1,-1,-1,-1],"split_conditions":[6.7E0,-9.6055426E-2,7.5E1,5.95E2,2.1E1,5E0,1.3E1,1.8E1,-4.5370102E-2,1.633075E-2,-4.41222E-3,-3.532701E-3,-6.686234E-2,9.016296E-2,1.1948E-2],"split_indices":[5,0,7,1,0,2,4,4,0,0,0,0,0,0,0],"split_type":[0,0,0,0,0,0,0,0,0,0,0,0,0,0,0],"sum_hessian":[1.9931399E3,2.2787922E1,1.9703519E3,1.9439694E3,2.638266E1,1.5841543E3,3.5981497E2,2.5365448E1,1.0172102E0,6.479924E2,9.361619E2,2.8064062E2,7.917436E1,2.410846E1,1.2569891E0],"tree_param":{"num_deleted":"0","num_feature":"8","num_nodes":"15","size_leaf_vector":"1"}},{"base_weights":[1.3183987E-4,-1.050322E-1,1.0159617E-2,-4.9637932E-2,1.563676E-1,-4.430301E-2,-1.9455136E-1,1.3076434E-1,9.463875E-2,-9.536237E-3,1.329111E-2,1.5405918E-2,-5.8633924E-2],"categories":[],"categories_nodes":[],"categories_segments":[],"categories_sizes":[],"default_left":[0,0,0,0,0,0,0,0,0,0,0,0,0],"id":75,"left_children":[1,-1,3,5,7,9,-1,11,-1,-1,-1,-1,-1],"loss_changes":[2.0965925E1,0E0,1.7244608E1,1.4073992E1,1.1456663E1,1.265429E1,0E0,9.373335E0,0E0,0E0,0E0,0E0,0E0],"parents":[2147483647,0,0,2,2,3,3,4,4,5,5,7,7],"right_children":[2,-1,4,6,8,10,-1,12,-1,-1,-1,-1,-1],"split_conditions":[5E0,-1.050322E-1,5E1,1.9E1,1E2,4.29E1,-1.9455136E-1,1.825E1,9.463875E-2,-9.536237E-3,1.329111E-2,1.5405918E-2,-5.8633924E-2],"split_indices":[6,0,7,4,7,5,0,4,0,0,0,0,0],"split_type":[0,0,0,0,0,0,0,0,0,0,0,0,0],"sum_hessian":[1.9883503E3,1.7820621E1,1.9705297E3,1.3990098E3,5.7151996E2,1.3961045E3,2.905216E0,5.5470825E2,1.6811684E1,1.0841876E3,3.119169E2,5.380162E2,1.6692091E1],"tree_param":{"num_deleted":"0","num_feature":"8","num_nodes":"13","size_leaf_vector":"1"}},{"base_weights":[5.544347E-5,-9.576952E-2,1.0498013E-2,2.1585592E-3,9.883914E-2,1.6324072E-1,-3.933936E-2,-2.8090077E-3,3.6867574E-2,4.9243323E-3,-2.4910985E-2],"categories":[],"categories_nodes":[],"categories_segments":[],"categories_sizes":[],"default_left":[0,0,0,0,0,0,0,0,0,0,0],"id":76,"left_children":[1,-1,3,5,-1,7,9,-1,-1,-1,-1],"loss_changes":[1.9843796E1,0E0,1.6003885E1,1.3022003E1,0E0,1.5695561E1,2.8796835E1,0E0,0E0,0E0,0E0],"parents":[2147483647,0,0,2,2,3,3,5,5,6,6],"right_children":[2,-1,4,6,-1,8,10,-1,-1,-1,-1],"split_conditions":[5.3E0,-9.576952E-2,1E2,8.8E0,9.883914E-2,5.75E2,5.85E2,-2.8090077E-3,3.6867574E-2,4.9243323E-3,-2.4910985E-2],"split_indices":[7,0,6,4,0,1,1,0,0,0,0],"split_type":[0,0,0,0,0,0,0,0,0,0,0],"sum_hessian":[1.982101E3,2.039983E1,1.9617012E3,1.9461069E3,1.5594152E1,3.9805322E2,1.5480538E3,2.0654858E2,1.9150462E2,1.0889662E3,4.5908755E2],"tree_param":{"num_deleted":"0","num_feature":"8","num_nodes":"11","size_leaf_vector":"1"}},{"base_weights":[1.4768353E-4,-9.523512E-2,9.8408265E-3,1.5446398E-3,9.436139E-2,7.544733E-2,-8.506201E-2,-7.578776E-3,3.331179E-2,-2.579781E-3,-6.915892E-2],"categories":[],"categories_nodes":[],"categories_segments":[],"categories_sizes":[],"default_left":[0,0,0,0,0,0,0,0,0,0,0],"id":77,"left_children":[1,-1,3,5,-1,7,9,-1,-1,-1,-1],"loss_changes":[1.827827E1,0E0,1.5180412E1,1.2445814E1,0E0,4.091134E1,3.2164562E1,0E0,0E0,0E0,0E0],"parents":[2147483647,0,0,2,2,3,3,5,5,6,6],"right_children":[2,-1,4,6,-1,8,10,-1,-1,-1,-1],"split_conditions":[6.7E0,-9.523512E-2,1E2,5.1E0,9.436139E-2,8E-1,1.35E1,-7.578776E-3,3.331179E-2,-2.579781E-3,-6.915892E-2],"split_indices":[5,0,5,0,0,0,4,0,0,0,0],"split_type":[0,0,0,0,0,0,0,0,0,0,0],"sum_hessian":[1.9777155E3,1.894385E1,1.9587716E3,1.9425148E3,1.6256784E1,1.0481998E3,8.94315E2,6.609645E2,3.8723532E2,8.1565894E2,7.865608E1],"tree_param":{"num_deleted":"0","num_feature":"8","num_nodes":"11","size_leaf_vector":"1"}},{"base_weights":[2.2691677E-4,-1.0397961E-1,8.698257E-3,1.1762893E-3,9.790577E-2,-1.5534535E-1,4.111062E-2,-6.7351446E-3,-5.7337195E-2,1.2037812E-2,-6.2122447E-3],"categories":[],"categories_nodes":[],"categories_segments":[],"categories_sizes":[],"default_left":[0,0,0,0,0,0,0,0,0,0,0],"id":78,"left_children":[1,-1,3,5,-1,7,9,-1,-1,-1,-1],"loss_changes":[1.7386942E1,0E0,1.4286574E1,1.2153974E1,0E0,1.4500463E1,1.2684409E1,0E0,0E0,0E0,0E0],"parents":[2147483647,0,0,2,2,3,3,5,5,6,6],"right_children":[2,-1,4,6,-1,8,10,-1,-1,-1,-1],"split_conditions":[5E0,-1.0397961E-1,1E2,2.22E1,9.790577E-2,5.95E2,1.15E1,-6.7351446E-3,-5.7337195E-2,1.2037812E-2,-6.2122447E-3],"split_indices":[6,0,6,5,0,1,4,0,0,0,0],"split_type":[0,0,0,0,0,0,0,0,0,0,0],"sum_hessian":[1.9714323E3,1.4944618E1,1.9564877E3,1.9424316E3,1.4056001E1,3.942578E2,1.5481738E3,3.2665796E2,6.759984E1,8.756444E2,6.725295E2],"tree_param":{"num_deleted":"0","num_feature":"8","num_nodes":"11","size_leaf_vector":"1"}},{"base_weights":[2.2400587E-4,-9.491558E-2,9.051574E-3,1.6062416E-3,9.37886E-2,3.4623835E-2,-1.766687E-1,-6.8727E-3,1.0571468E-2,1.0145058E-2,-2.9720351E-2],"categories":[],"categories_nodes":[],"categories_segments":[],"categories_sizes":[],"default_left":[0,0,0,0,0,0,0,0,0,0,0],"id":79,"left_children":[1,-1,3,5,-1,7,9,-1,-1,-1,-1],"loss_changes":[1.6495459E1,0E0,1.3484415E1,1.13994665E1,0E0,1.2012532E1,1.0175238E1,0E0,0E0,0E0,0E0],"parents":[2147483647,0,0,2,2,3,3,5,5,6,6],"right_children":[2,-1,4,6,-1,8,10,-1,-1,-1,-1],"split_conditions":[5.3E0,-9.491558E-2,1E2,1.4E1,9.37886E-2,8E-1,8E0,-6.8727E-3,1.0571468E-2,1.0145058E-2,-2.9720351E-2],"split_indices":[7,0,7,0,0,0,4,0,0,0,0],"split_type":[0,0,0,0,0,0,0,0,0,0,0],"sum_hessian":[1.9662388E3,1.7132805E1,1.949106E3,1.9346003E3,1.4505602E1,1.6329702E3,3.0163013E2,6.655038E2,9.674665E2,9.1247055E1,2.1038307E2],"tree_param":{"num_deleted":"0","num_feature":"8","num_nodes":"11","size_leaf_vector":"1"}},{"base_weights":[2.3335744E-4,-9.4275996E-2,8.3623E-3,1.0332668E-3,9.359085E-2,1.1741845E-1,-4.7530975E-2,1.3328086E-2,-2.4358161E-1,-2.9240606E-2,4.0352806E-3],"categories":[],"categories_nodes":[],"categories_segments":[],"categories_sizes":[],"default_left":[0,0,0,0,0,0,0,0,0,0,0],"id":80,"left_children":[1,-1,3,5,-1,7,9,-1,-1,-1,-1],"loss_changes":[1.5052091E1,0E0,1.3233375E1,1.0928566E1,0E0,2.3380035E1,2.9371653E1,0E0,0E0,0E0,0E0],"parents":[2147483647,0,0,2,2,3,3,5,5,6,6],"right_children":[2,-1,4,6,-1,8,10,-1,-1,-1,-1],"split_conditions":[6.7E0,-9.4275996E-2,1E2,1E1,9.359085E-2,3.3E1,8E-1,1.3328086E-2,-2.4358161E-1,-2.9240606E-2,4.0352806E-3],"split_indices":[5,0,5,3,0,0,0,0,0,0,0],"split_type":[0,0,0,0,0,0,0,0,0,0,0],"sum_hessian":[1.9615768E3,1.5782319E1,1.9457944E3,1.9315334E3,1.4260955E1,5.682627E2,1.3632709E3,5.65696E2,2.5666835E0,3.5943408E2,1.00383673E3],"tree_param":{"num_deleted":"0","num_feature":"8","num_nodes":"11","size_leaf_vector":"1"}},{"base_weights":[1.591978E-4,-1.0269882E-1,7.3762196E-3,8.247681E-2,-8.066184E-2,-3.9416388E-2,3.0168152E-1,-2.8433144E-2,-6.041746E-1,2.1149557E-2,-2.4526764E-2,5.2928753E-2,-6.4898566E-3,-1.155734E-3,-1.2175741E-1,-2.1073543E-1,-3.8978558E-2],"categories":[],"categories_nodes":[],"categories_segments":[],"categories_sizes":[],"default_left":[0,0,0,0,0,0,0,0,0,0,0,0,0,0,0,0,0],"id":81,"left_children":[1,-1,3,5,7,9,11,13,15,-1,-1,-1,-1,-1,-1,-1,-1],"loss_changes":[1.4533905E1,0E0,1.2879058E1,2.8098106E1,2.4502438E1,3.498824E1,3.138527E1,1.6370438E1,2.537903E1,0E0,0E0,0E0,0E0,0E0,0E0,0E0,0E0],"parents":[2147483647,0,0,2,2,3,3,4,4,5,5,6,6,7,7,8,8],"right_children":[2,-1,4,6,8,10,12,14,16,-1,-1,-1,-1,-1,-1,-1,-1],"split_conditions":[5E0,-1.0269882E-1,5.1E0,8E-1,1.36E1,1E1,1.22E1,1.6E1,6.2E0,2.1149557E-2,-2.4526764E-2,5.2928753E-2,-6.4898566E-3,-1.155734E-3,-1.2175741E-1,-2.1073543E-1,-3.8978558E-2],"split_indices":[6,0,0,0,4,3,4,2,0,0,0,0,0,0,0,0,0],"split_type":[0,0,0,0,0,0,0,0,0,0,0,0,0,0,0,0,0],"sum_hessian":[1.9585897E3,1.2679684E1,1.94591E3,1.0501478E3,8.9576215E2,6.7539886E2,3.7474896E2,8.154613E2,8.030088E1,3.0437228E2,3.710266E2,2.3092564E2,1.4382332E2,8.0504614E2,1.0415168E1,8.921135E0,7.1379745E1],"tree_param":{"num_deleted":"0","num_feature":"8","num_nodes":"17","size_leaf_vector":"1"}},{"base_weights":[1.8922576E-4,-9.398791E-2,7.7263927E-3,9.2690374E-4,9.707101E-2,-6.650218E-3,7.263695E-1,2.5237355E-4,-5.8015972E-2,8.131109E-2,-4.4097584E-2],"categories":[],"categories_nodes":[],"categories_segments":[],"categories_sizes":[],"default_left":[0,0,0,0,0,0,0,0,0,0,0],"id":82,"left_children":[1,-1,3,5,-1,7,9,-1,-1,-1,-1],"loss_changes":[1.3856789E1,0E0,1.2702397E1,1.0599771E1,0E0,1.0043024E1,2.3769436E0,0E0,0E0,0E0,0E0],"parents":[2147483647,0,0,2,2,3,3,5,5,6,6],"right_children":[2,-1,4,6,-1,8,10,-1,-1,-1,-1],"split_conditions":[5.3E0,-9.398791E-2,1E2,7.5E1,9.707101E-2,1.8E1,2E1,2.5237355E-4,-5.8015972E-2,8.131109E-2,-4.4097584E-2],"split_indices":[7,0,6,7,0,4,0,0,0,0,0],"split_type":[0,0,0,0,0,0,0,0,0,0,0],"sum_hessian":[1.9536426E3,1.4555201E1,1.9390874E3,1.9264857E3,1.2601676E1,1.9075525E3,1.893322E1,1.8784993E3,2.9053186E1,1.790613E1,1.0270898E0],"tree_param":{"num_deleted":"0","num_feature":"8","num_nodes":"11","size_leaf_vector":"1"}},{"base_weights":[1.9706933E-4,-1.0693828E-1,6.159478E-2,1.6174453E-1,-2.2022192E-1,7.599741E-2,-1.0046073E0,2.0834146E-1,-9.930628E-1,-2.7829915E-1,3.2442185E-1,2.9895788E-1,3.424827E-2,-1.9604146E0,-1.0181504E-1,-1.2515937E-1,2.4524625E-2,-2.0876143E-3,-2.595869E-1,-2.40263E-2,-1.7080124E-1,-1.2215098E-1,4.2574834E-2,1.6488132E-4,5.0482105E-2,9.92575E-3,-1.7148806E-2,-6.702701E-2,-2.8404957E-1,-1.6534936E-1,3.161877E-2],"categories":[],"categories_nodes":[],"categories_segments":[],"categories_sizes":[],"default_left":[0,0,0,0,0,0,0,0,0,0,0,0,0,0,0,0,0,0,0,0,0,0,0,0,0,0,0,0,0,0,0],"id":83,"left_children":[1,3,5,7,9,11,13,15,17,19,21,23,25,27,29,-1,-1,-1,-1,-1,-1,-1,-1,-1,-1,-1,-1,-1,-1,-1,-1],"loss_changes":[1.284295E1,2.1685448E1,1.9135702E1,1.1589495E1,1.5930025E1,1.1397631E1,1.4135559E1,1.1306457E1,1.3000224E1,2.4226612E1,8.150829E0,1.1821491E1,1.3838296E1,7.1962585E0,6.7482247E0,0E0,0E0,0E0,0E0,0E0,0E0,0E0,0E0,0E0,0E0,0E0,0E0,0E0,0E0,0E0,0E0],"parents":[2147483647,0,0,1,1,2,2,3,3,4,4,5,5,6,6,7,7,8,8,9,9,10,10,11,11,12,12,13,13,14,14],"right_children":[2,4,6,8,10,12,14,16,18,20,22,24,26,28,30,-1,-1,-1,-1,-1,-1,-1,-1,-1,-1,-1,-1,-1,-1,-1,-1],"split_conditions":[2.86E1,4E0,1.5E1,6.1E2,1.4E1,8.333333E0,4E1,7.7E0,6.4E0,1.46E1,1.43E1,5.7E2,7.2E0,9.5E0,5.65E2,-1.2515937E-1,2.4524625E-2,-2.0876143E-3,-2.595869E-1,-2.40263E-2,-1.7080124E-1,-1.2215098E-1,4.2574834E-2,1.6488132E-4,5.0482105E-2,9.92575E-3,-1.7148806E-2,-6.702701E-2,-2.8404957E-1,-1.6534936E-1,3.161877E-2],"split_indices":[5,2,2,1,2,4,6,6,0,4,5,1,0,4,1,0,0,0,0,0,0,0,0,0,0,0,0,0,0,0,0],"split_type":[0,0,0,0,0,0,0,0,0,0,0,0,0,0,0,0,0,0,0,0,0,0,0,0,0,0,0,0,0,0,0],"sum_hessian":[1.9504484E3,7.102911E2,1.2401573E3,2.105313E2,4.9975977E2,1.2245444E3,1.5612853E1,2.0315356E2,7.377737E0,4.520456E2,4.7714157E1,1.9215952E2,1.0323849E3,7.0147123E0,8.598141E0,4.197276E0,1.9895628E2,5.222836E0,2.1549013E0,4.4146878E2,1.0576809E1,2.2549753E0,4.5459183E1,7.9030754E1,1.1312877E2,7.8489026E2,2.4749464E2,3.5590153E0,3.455697E0,1.19743E0,7.400711E0],"tree_param":{"num_deleted":"0","num_feature":"8","num_nodes":"31","size_leaf_vector":"1"}},{"base_weights":[-1.7219454E-4,-1.0103116E-1,6.0708267E-3,-4.7988165E-4,9.280609E-2,-8.3994254E-2,6.255466E-2,-3.030052E-3,-4.0270913E-2,1.6331246E-2,-4.664485E-3],"categories":[],"categories_nodes":[],"categories_segments":[],"categories_sizes":[],"default_left":[0,0,0,0,0,0,0,0,0,0,0],"id":84,"left_children":[1,-1,3,5,-1,7,9,-1,-1,-1,-1],"loss_changes":[1.2276421E1,0E0,1.1685761E1,1.0123773E1,0E0,1.4143232E1,1.2065811E1,0E0,0E0,0E0,0E0],"parents":[2147483647,0,0,2,2,3,3,5,5,6,6],"right_children":[2,-1,4,6,-1,8,10,-1,-1,-1,-1],"split_conditions":[5E0,-1.0103116E-1,1E2,2.86E1,9.280609E-2,6E2,1.15E1,-3.030052E-3,-4.0270913E-2,1.6331246E-2,-4.664485E-3],"split_indices":[6,0,5,7,0,1,4,0,0,0,0],"split_type":[0,0,0,0,0,0,0,0,0,0,0],"sum_hessian":[1.9447122E3,1.0957303E1,1.9337549E3,1.921105E3,1.2649905E1,8.2617474E2,1.0949302E3,7.079943E2,1.1818038E2,5.692192E2,5.2571106E2],"tree_param":{"num_deleted":"0","num_feature":"8","num_nodes":"11","size_leaf_vector":"1"}},{"base_weights":[-1.11144196E-4,-9.301245E-2,6.4242296E-3,3.4331062E-4,9.586898E-2,-5.0989874E-3,9.142388E-2,3.6458968E-4,-5.3792458E-2],"categories":[],"categories_nodes":[],"categories_segments":[],"categories_sizes":[],"default_left":[0,0,0,0,0,0,0,0,0],"id":85,"left_children":[1,-1,3,5,-1,7,-1,-1,-1],"loss_changes":[1.1806994E1,0E0,1.11700945E1,9.543232E0,0E0,8.889705E0,0E0,0E0,0E0],"parents":[2147483647,0,0,2,2,3,3,5,5],"right_children":[2,-1,4,6,-1,8,-1,-1,-1],"split_conditions":[5.3E0,-9.301245E-2,1E2,1E2,9.586898E-2,1.8E1,9.142388E-2,3.6458968E-4,-5.3792458E-2],"split_indices":[7,0,6,7,0,4,0,0,0],"split_type":[0,0,0,0,0,0,0,0,0],"sum_hessian":[1.9406006E3,1.2555631E1,1.9280449E3,1.916805E3,1.1239855E1,1.9064465E3,1.0358575E1,1.8766396E3,2.9806784E1],"tree_param":{"num_deleted":"0","num_feature":"8","num_nodes":"9","size_leaf_vector":"1"}},{"base_weights":[-5.0693066E-5,-9.266205E-2,6.3000554E-3,4.0740793E-4,9.201955E-2,-4.4485973E-3,9.4039835E-2,4.7771666E-2,-1.363492E-3],"categories":[],"categories_nodes":[],"categories_segments":[],"categories_sizes":[],"default_left":[0,0,0,0,0,0,0,0,0],"id":86,"left_children":[1,-1,3,5,-1,7,-1,-1,-1],"loss_changes":[1.1415165E1,0E0,1.0375419E1,8.747029E0,0E0,8.451064E0,0E0,0E0,0E0],"parents":[2147483647,0,0,2,2,3,3,5,5],"right_children":[2,-1,4,6,-1,8,-1,-1,-1],"split_conditions":[6.7E0,-9.266205E-2,1E2,1E2,9.201955E-2,5.25E2,9.4039835E-2,4.7771666E-2,-1.363492E-3],"split_indices":[5,0,5,6,0,1,0,0,0],"split_type":[0,0,0,0,0,0,0,0,0],"sum_hessian":[1.9379067E3,1.2205636E1,1.9257012E3,1.9143582E3,1.134302E1,1.9055095E3,8.848619E0,3.4671906E1,1.8708376E3],"tree_param":{"num_deleted":"0","num_feature":"8","num_nodes":"9","size_leaf_vector":"1"}},{"base_weights":[5.691137E-5,-9.950252E-2,5.4734126E-3,-3.934695E-2,1.1907414E-1,-3.462496E-2,-1.674553E-1,1.3414668E-1,-8.295307E-1,2.6009807E-3,-1.4486668E-2,1.1698716E-2,9.143712E-2,1.3409755E-2,-1.8245855E-1],"categories":[],"categories_nodes":[],"categories_segments":[],"categories_sizes":[],"default_left":[0,0,0,0,0,0,0,0,0,0,0,0,0,0,0],"id":87,"left_children":[1,-1,3,5,7,9,-1,11,13,-1,-1,-1,-1,-1,-1],"loss_changes":[1.0443751E1,0E0,9.817087E0,1.0618314E1,7.9104843E0,9.22651E0,0E0,7.0933676E0,8.558837E0,0E0,0E0,0E0,0E0,0E0,0E0],"parents":[2147483647,0,0,2,2,3,3,4,4,5,5,7,7,8,8],"right_children":[2,-1,4,6,8,10,-1,12,14,-1,-1,-1,-1,-1,-1],"split_conditions":[5E0,-9.950252E-2,5E1,1.9E1,1.5E1,7.8E0,-1.674553E-1,1E2,9E0,2.6009807E-3,-1.4486668E-2,1.1698716E-2,9.143712E-2,1.3409755E-2,-1.8245855E-1],"split_indices":[6,0,7,4,2,0,0,7,0,0,0,0,0,0,0],"split_type":[0,0,0,0,0,0,0,0,0,0,0,0,0,0,0],"sum_hessian":[1.9356549E3,9.490137E0,1.9261648E3,1.3816846E3,5.4448016E2,1.3787244E3,2.9601722E0,5.368093E2,7.670859E0,8.899831E2,4.8874133E2,5.263825E2,1.042681E1,4.336527E0,3.334332E0],"tree_param":{"num_deleted":"0","num_feature":"8","num_nodes":"15","size_leaf_vector":"1"}},{"base_weights":[-7.6175886E-5,-9.177363E-2,5.580049E-3,2.801593E-4,9.116139E-2,4.3053064E-2,-1.0021639E-1,9.192076E-3,-2.0202843E-2,4.043385E-2,-2.1929052E-2],"categories":[],"categories_nodes":[],"categories_segments":[],"categories_sizes":[],"default_left":[0,0,0,0,0,0,0,0,0,0,0],"id":88,"left_children":[1,-1,3,5,-1,7,9,-1,-1,-1,-1],"loss_changes":[1.0035102E1,0E0,9.226708E0,8.220342E0,0E0,1.6084223E1,3.439004E1,0E0,0E0,0E0,0E0],"parents":[2147483647,0,0,2,2,3,3,5,5,6,6],"right_children":[2,-1,4,6,-1,8,10,-1,-1,-1,-1],"split_conditions":[6.7E0,-9.177363E-2,1E2,5.85E2,9.116139E-2,1.5E1,8.5E0,9.192076E-3,-2.0202843E-2,4.043385E-2,-2.1929052E-2],"split_indices":[5,0,5,1,0,3,4,0,0,0,0],"split_type":[0,0,0,0,0,0,0,0,0,0,0],"sum_hessian":[1.9313757E3,1.0843753E1,1.920532E3,1.9103575E3,1.0174421E1,1.3404238E3,5.699338E2,1.1181056E3,2.2231818E2,1.0836426E2,4.6156952E2],"tree_param":{"num_deleted":"0","num_feature":"8","num_nodes":"11","size_leaf_vector":"1"}},{"base_weights":[3.3715867E-5,-9.169524E-2,5.537744E-3,6.093617E-4,9.345956E-2,-1.1155836E-2,3.6379695E-1,7.3259585E-3,-6.6626268E-3,5.5346698E-2,-8.987843E-3],"categories":[],"categories_nodes":[],"categories_segments":[],"categories_sizes":[],"default_left":[0,0,0,0,0,0,0,0,0,0,0],"id":89,"left_children":[1,-1,3,5,-1,7,9,-1,-1,-1,-1],"loss_changes":[9.741365E0,0E0,8.784054E0,8.163045E0,0E0,8.669939E0,5.2078285E0,0E0,0E0,0E0,0E0],"parents":[2147483647,0,0,2,2,3,3,5,5,6,6],"right_children":[2,-1,4,6,-1,8,10,-1,-1,-1,-1],"split_conditions":[5.3E0,-9.169524E-2,1E2,6.67E1,9.345956E-2,5E0,1.36E1,7.3259585E-3,-6.6626268E-3,5.5346698E-2,-8.987843E-3],"split_indices":[7,0,6,7,0,2,4,0,0,0,0],"split_type":[0,0,0,0,0,0,0,0,0,0,0],"sum_hessian":[1.9280787E3,1.0515833E1,1.917563E3,1.90844E3,9.123065E0,1.8494961E3,5.89438E1,7.3327325E2,1.1162229E3,4.141097E1,1.753283E1],"tree_param":{"num_deleted":"0","num_feature":"8","num_nodes":"11","size_leaf_vector":"1"}},{"base_weights":[9.570498E-5,-9.78965E-2,4.8467554E-3,6.777406E-5,9.02565E-2,1.7070765E-2,-2.3860572E-1,5.1615397E-3,-1.2609042E-2,-4.6117514E-2,3.2334995E-2],"categories":[],"categories_nodes":[],"categories_segments":[],"categories_sizes":[],"default_left":[0,0,0,0,0,0,0,0,0,0,0],"id":90,"left_children":[1,-1,3,5,-1,7,9,-1,-1,-1,-1],"loss_changes":[8.966926E0,0E0,8.230185E0,7.7520566E0,0E0,8.8252325E0,1.6037865E1,0E0,0E0,0E0,0E0],"parents":[2147483647,0,0,2,2,3,3,5,5,6,6],"right_children":[2,-1,4,6,-1,8,10,-1,-1,-1,-1],"split_conditions":[5E0,